3.557368427628578855e-01,-2.258876435758198653e+01,-3.688828974287433837e+00,-3.179135247103994644e-01,-7.008608625340784215e-01,4.121847257493381989e+00
5.804263660712875028e-01,-2.261213639070258807e+01,-4.195947662594020855e+00,3.963810250812951352e-01,5.051751334094394252e-01,4.381997997992980842e+00
6.469964715579423764e-01,-1.829502670057613045e+01,-4.654084625470915171e+00,4.859238183221824769e+00,4.794416021706882525e+00,4.898332760305505573e+00
7.581165994636963612e-01,-2.577444262320340229e+01,-6.559825183113384028e+00,2.041082593773005271e+00,3.046131772723803977e+00,5.192617150012428517e+00
5.864658258695805149e-01,-2.526460755956118831e+01,-6.316703581506661003e+00,1.056816298865806303e+00,3.130701011509624543e+00,4.418476813432647532e+00
5.516101130831196908e-01,-2.333722195532478594e+01,-6.109942559595970657e+00,3.796576397220786880e+00,8.053051161744315678e-01,5.201764681168643989e+00
6.993908915049084074e-01,-1.947391066690649808e+01,-3.051791667315025158e+00,5.780154605170144677e-01,-2.272081296733420075e+00,4.193207583595329524e+00
5.466076244508271120e-01,-2.292525393329271566e+01,-5.312197415161924674e+00,4.058694118886934987e+00,2.472578666888853860e-01,4.778053280726417107e+00
7.187971248538649327e-03,-2.163943672395544482e+01,-5.395062293621132099e+00,3.964932720248394382e+00,-5.038367603346225465e-01,4.635672994118909429e+00
5.541072513732612226e-01,-2.227485360729419028e+01,-5.956140594563817281e+00,3.605259772175379851e+00,5.187537802176241719e+00,4.853625235583230335e+00
9.366904757389853398e-01,-1.930830047792158766e+01,-4.128935820956366243e+00,1.336222570945384547e+00,-1.411951555379760137e-01,4.566274043714015463e+00
3.292944009263532035e-02,-2.336408993142157442e+01,-4.880475676896678827e+00,2.982533097225450014e+00,-1.041590776031658727e+00,4.609961013041326439e+00
6.251824984267263519e-01,-1.950919880036678578e+01,-3.063652991863590636e+00,7.006100596049806839e-01,-3.160920873255097518e-01,4.440184310179438043e+00
2.932624598466149202e-01,-2.143101069818439086e+01,-3.887750161892809864e+00,-3.986791464605463631e-01,-2.307643639021398130e+00,4.236149325599702919e+00
1.700974807013099221e-01,-2.499620681083231233e+01,-5.563322291425675026e+00,1.098127270256365584e+00,3.015526698956706220e+00,4.968142783874116120e+00
5.331671805963756894e-01,-2.144722967117934687e+01,-4.596569179261090099e+00,3.162220552773360893e+00,1.848231733487277317e+00,4.916426069097910911e+00
1.892208624036928466e-01,-1.881185082186519963e+01,-4.104380371753911128e+00,2.565500540699041210e+00,-8.983749358257018258e-01,4.313776623386434750e+00
7.422050988148641837e-01,-2.466656827308952060e+01,-5.781480333226727275e+00,1.518258697410145963e+00,4.168008548820673731e+00,4.929460319643296451e+00
2.380717154717735262e-01,-2.228891060071199348e+01,-6.102755300483772238e+00,6.225596377406254156e+00,1.926650316377487293e+00,4.756999344058892021e+00
8.676276466862182790e-01,-2.077995287024175397e+01,-5.017069032801435569e+00,1.585584856798043063e+00,-2.068238860739392670e+00,4.488201629596559883e+00
2.919387300761133730e-03,-2.174575630377215418e+01,-5.747047030406811530e+00,5.304698733330996951e+00,4.601594885897513976e+00,4.827120101825151721e+00
2.210805309972139199e-01,-2.489961404028608172e+01,-5.730148570298111643e+00,9.453131211062446582e-01,-6.239766008755909255e-01,4.390219087669049891e+00
2.622066140527219424e-01,-2.593565310899607468e+01,-5.243038915423500868e+00,2.701654314381697120e+00,-4.563840803140850610e-01,4.574236432688467247e+00
1.813419398782292191e-01,-2.145430687817575688e+01,-3.726314973935616948e+00,7.668005847694425725e-01,5.293484924040949835e-01,4.359347161171418961e+00
8.011619348171947763e-01,-2.335543729913269928e+01,-5.508333415151160040e+00,4.861247838413137679e+00,4.106156903170979255e+00,5.266216265814794184e+00
5.553791965359076155e-01,-2.290160040174946232e+01,-6.137751219546048631e+00,6.572534310767026433e+00,4.324160570595362962e+00,4.910204229499152362e+00
5.211436743308260899e-01,-2.563846129779653893e+01,-6.302714857797178993e+00,3.774173309560578282e+00,1.287322515683911206e+00,4.744247035195886752e+00
2.549217241801304823e-01,-2.086801027932180830e+01,-4.490289005931835220e+00,2.230569600298395017e+00,2.091448435975483910e+00,4.542526690277623125e+00
6.618468313499830113e-01,-2.137595850851104018e+01,-3.582920637562879485e+00,1.134391615987446755e-01,-1.124299582332401570e+00,4.525802216557851310e+00
5.025052450476971133e-01,-2.050758456853727907e+01,-4.477929483218595408e+00,1.298012832390925020e+00,1.379523512045255806e+00,4.314849600324178525e+00
3.752556850244993525e-01,-2.458690599352213013e+01,-6.664366047883612865e+00,6.250992334799316374e+00,2.616166992544593839e+00,5.005028266847952878e+00
4.461800588169305692e-01,-2.323242548207335645e+01,-3.186360365823702523e+00,-7.156057386906988782e-01,-9.389525198117691929e-01,4.396424334055481609e+00
7.951860498485991968e-01,-2.592963700524868287e+01,-6.341723060184760286e+00,4.661749301182000593e+00,1.623431500236231173e+00,4.820349197947611408e+00
4.875237486853722935e-01,-2.572124755678176911e+01,-5.973252817880363885e+00,3.339946767037039521e+00,3.835599595988345989e+00,5.428548639255039276e+00
8.768109188626715955e-02,-2.369128428404970776e+01,-5.202609148513555937e+00,4.794315728223894624e+00,1.650377324017341607e+00,4.743193196030194514e+00
8.561588025832276294e-01,-2.473043470249238851e+01,-6.309200878605652818e+00,4.512174084913354477e+00,7.188523104632889016e-01,5.239342549360127776e+00
9.379278655446363633e-01,-2.016388940547845365e+01,-4.981982512467639346e+00,4.864827475184496208e+00,3.779777028998608124e+00,4.338238765417707477e+00
5.236324673982005740e-01,-2.508826655621855650e+01,-4.563772806061106913e+00,-7.691275872497449484e-02,3.499265723617366319e-01,5.141179875862260218e+00
1.253893645045971450e-01,-2.530565471275808065e+01,-5.443322326871428807e+00,5.126992689495866173e-01,2.869437600929403587e+00,4.454286825253367610e+00
3.925309923194441053e-01,-2.370367643721390039e+01,-5.206771912187994289e+00,3.745373502369520047e+00,3.593808969979816581e+00,4.961709233731814273e+00
7.028262874563264706e-01,-2.239406011359604065e+01,-3.487114496022363674e+00,-1.447422529911666089e-01,-2.024719974399141975e+00,4.375685539531719570e+00
5.887521426804981362e-01,-2.416447374021306871e+01,-5.068857704481319892e+00,8.219826143604205271e-01,-2.006503682806877187e+00,4.568371352916569705e+00
5.949739557576410043e-01,-2.308134359465878660e+01,-5.743912899765446056e+00,5.192437257305994258e+00,3.605910279293649268e-01,4.672113557781745641e+00
4.372734812440088881e-01,-1.916018633950313443e+01,-4.810392010234615157e+00,5.697727828603094125e+00,3.522239684167247198e+00,4.936117513824155978e+00
1.031334232350979985e-01,-2.491284570203510285e+01,-5.095010321075595705e+00,9.320078125182718054e-02,-1.524290379131818973e+00,4.501295415804944966e+00
1.862436886920838530e-01,-2.455950659984803508e+01,-5.481762207124297959e+00,1.950880038408612016e+00,3.716468729355272060e+00,4.907958925027686270e+00
4.441359128159957370e-01,-1.883079729453035611e+01,-5.744182147261319038e+00,6.157029188607594072e+00,4.656168285047997735e+00,4.967446401671187672e+00
4.704819527162458215e-01,-2.546858257787355484e+01,-6.478103064066933037e+00,2.456654209004955014e+00,-3.634064694161187603e-01,5.167151699457086522e+00
4.980649147646789565e-01,-2.566341956808521729e+01,-6.211394198404458500e+00,2.476082008225355402e+00,4.312951689481279161e-01,4.656542196595315986e+00
1.023595520415967464e-01,-2.163626724132281609e+01,-4.826711464911897842e+00,4.231813325253908076e+00,-2.257934130111661553e+00,4.767248702646076808e+00
1.297409529278583662e-01,-2.356132986814179375e+01,-3.728634783261829178e+00,1.297500068284484165e+00,-7.715530440528279854e-01,4.523656462415012847e+00
6.033674934815860258e-01,-2.397819214963869427e+01,-6.520297065461901020e+00,6.708479380705862027e+00,3.678291069665919899e+00,4.947629408900525050e+00
7.966988253015924171e-01,-2.365904064604614376e+01,-6.391613755120145512e+00,6.253743333940582794e+00,9.782621409575051885e-01,4.884725291392614466e+00
4.584183483802602987e-01,-2.212212317613711576e+01,-4.112445839174354134e+00,1.062423523057476338e+00,4.402644253486753811e-01,4.572676662149609328e+00
2.906239706890052510e-01,-2.015133360498986903e+01,-3.036270986066575084e+00,-4.098751745646307398e-01,1.237355084401059457e-02,4.605928139825200773e+00
9.147003329015327422e-01,-2.408396028953214696e+01,-5.364435043841963235e+00,4.851417799021001898e+00,-9.992238971363480715e-01,4.665144416119209048e+00
9.747355423000904073e-01,-2.440185675816920252e+01,-5.557280256609626434e+00,4.242914246381641163e+00,7.108219799080952583e-01,4.426379304098476908e+00
9.581888615989192504e-01,-2.066722865124235398e+01,-4.905995338385171323e+00,2.659625711923530034e+00,7.163798522064217522e-01,4.427225726245712423e+00
5.292242290449861164e-01,-2.527384634529894214e+01,-6.347943740285977299e+00,2.482079151625304014e+00,1.002576723386758850e+00,4.687765288632018468e+00
5.587412371706436121e-01,-1.848393265789786710e+01,-3.630228483181300092e+00,3.249497251370900841e-01,-7.053690427714682798e-01,4.023418593318107916e+00
6.956153390432573413e-01,-2.580166851734331956e+01,-5.293526045489598708e+00,3.114241547059561022e+00,6.051287009107779724e-01,4.419697080854176008e+00
5.985313253843922432e-01,-2.295750458449263220e+01,-4.894308421784757890e+00,4.018912991992708683e+00,-1.965514462657795391e+00,4.703064902770643485e+00
3.549373240344600999e-01,-2.591906453413009359e+01,-6.250460780843693165e+00,4.441899035577077548e+00,4.746342410422225377e+00,4.928121657363296215e+00
6.134932573224560759e-02,-2.309441224510400303e+01,-4.979886645815505553e+00,3.340685635602744341e+00,-2.140438152631009672e+00,4.695114173682017444e+00
3.586479822054073896e-01,-2.531028469649456625e+01,-6.377410369489524555e+00,3.662557428810742088e+00,2.614377923220841282e+00,5.345058558849818731e+00
9.483892468530563669e-01,-1.949423344375581024e+01,-4.251003785701606752e+00,2.791149734655096637e+00,-1.797379228101024573e+00,3.860319318722276183e+00
4.063283462414872815e-01,-1.920191353352786834e+01,-5.717382498626577103e+00,5.587247842119327679e+00,4.952475408666649592e+00,4.873028327915820412e+00
4.619545132574239821e-01,-2.559015735301643701e+01,-5.911399366430686975e+00,3.435171783886548091e+00,-1.935864063750546649e+00,5.077557383671628344e+00
1.364034710661991001e-01,-2.440298474748158952e+01,-5.051587689842296669e+00,-7.704660649467829359e-01,-7.736511593333093018e-01,5.249573149714812814e+00
3.493832823235156759e-01,-2.591915132026834812e+01,-6.489400099396575250e+00,3.062496065911796350e+00,4.769989225984378578e+00,5.011066477205663006e+00
8.477109677411296396e-01,-2.143042995005073692e+01,-4.724084433052719412e+00,2.703809588593143687e+00,1.730537257904663839e+00,4.304286830439821188e+00
4.763636393213344089e-02,-2.228597216195803554e+01,-5.748436056838358788e+00,6.207882449108589107e+00,4.140160761802474276e+00,4.876087020395452498e+00
3.052196250352385842e-01,-2.507555697873705469e+01,-5.525961103435424349e+00,4.063208394053869910e+00,3.205479432353260272e+00,4.671141017515328286e+00
1.016772187292644958e-01,-2.469781359561998002e+01,-5.048463247211770977e+00,3.780836119071151025e+00,1.579915620106575602e-02,4.680102854388542788e+00
9.807072438478015020e-02,-2.411690425952613026e+01,-5.218835475993124362e+00,3.041992637058209326e+00,1.597755225601765972e+00,4.840291098161143779e+00
5.978478922342003177e-01,-2.570232903632361854e+01,-6.490022120486987234e+00,4.105811819851063582e+00,-4.215110251462039770e-02,4.668915015248286338e+00
1.315274634087426620e-01,-2.248221546505979873e+01,-5.061412445255903947e+00,4.524042073519197515e+00,4.546779004176143779e+00,4.734558267430641010e+00
9.583054629325561402e-01,-2.066031172573743291e+01,-5.138450457669034854e+00,3.974904942215110815e+00,4.577186723625779941e+00,4.141762058352789211e+00
7.408095506557282883e-01,-2.367596878385724679e+01,-4.650605168452282889e+00,-1.871510776728495529e-01,1.750745631114468459e+00,4.632591384394221024e+00
9.497401429594641842e-01,-1.892482126528030051e+01,-5.479795546587499011e+00,3.003996147137351969e+00,2.387041146615065834e+00,4.282571842080269420e+00
1.407286700788392686e-01,-2.267093049647704817e+01,-4.825604859869049079e+00,6.792319997244353758e-01,-8.189277573287867540e-01,4.878505722807156886e+00
1.907493163186967378e-01,-2.435190638385250850e+01,-5.651960954713509011e+00,2.925080720330874406e+00,4.095172774502374047e+00,4.805028565443989486e+00
3.973263874124286499e-01,-2.438472546942408670e+01,-4.668540094549264552e+00,2.637133571488619488e+00,-1.822876398900387329e+00,5.249275886188139673e+00
3.928225898391376480e-01,-2.408606220716032098e+01,-4.934425819045708650e+00,1.756503128650120260e+00,1.661655244295745071e+00,4.409178649868600530e+00
1.851561129415576490e-01,-2.272067617581812726e+01,-3.498377008684761869e+00,9.950254195258434464e-02,-1.594075335226149193e+00,4.755410435319881834e+00
1.706500801771615450e-02,-2.387220633381627266e+01,-4.696116704350647986e+00,-4.437414322730459659e-01,1.114862689097418702e+00,4.983881861491758158e+00
6.547978225315642664e-01,-2.000143523315662009e+01,-4.096081806643510959e+00,1.046647451489884695e+00,-2.447163134708476129e+00,4.292938200695187945e+00
9.973392540111374327e-01,-1.867541997390409847e+01,-4.583891203331392106e+00,6.940521944897959372e-01,2.328035642613929923e+00,4.540065845573532322e+00
3.151788518235092429e-01,-1.816753572137127293e+01,-4.070720721792910446e+00,1.363668128675718627e+00,4.679091414033855756e-01,4.611737672320575854e+00
5.709146194505422267e-01,-2.344498328735151560e+01,-4.211421764569784010e+00,-8.652343819615913034e-01,-1.978038157044936796e+00,4.522338937483087129e+00
6.673292867725033606e-01,-2.289605046440120972e+01,-5.078204411983801236e+00,1.363409003919497486e+00,6.196063473071022898e-01,4.538503042677001886e+00
9.495780990224326201e-01,-2.170695688401687917e+01,-6.007186087701923860e+00,3.978442847128235371e+00,5.003269709698026091e-01,4.855500122027925691e+00
8.466637630907092316e-01,-2.371202180162955386e+01,-5.611421965181786042e+00,2.324385751022824742e+00,-8.252006125144131232e-01,4.412814751532657453e+00
7.570165201546484868e-01,-2.127855999962785205e+01,-5.015032189688304776e+00,1.964860728599759909e+00,4.718565487238359779e-01,4.903745016098646659e+00
3.696598879839699814e-01,-2.138148560119988772e+01,-3.858518187822156165e+00,1.056820838899099613e+00,1.423570716422304372e-01,4.207125676413010495e+00
9.652041449538742990e-01,-2.045521692378048328e+01,-5.832731336507850806e+00,4.328337287028136693e+00,1.038774038363243335e+00,4.428727410528267683e+00
3.562760901003789726e-01,-2.135184653474004435e+01,-4.434776378418136211e+00,6.582217438210076210e-01,-1.535120363401264676e+00,4.618029776085235127e+00
8.386704662093282803e-01,-2.337274552515028958e+01,-4.814574402918045948e+00,1.070852895939290228e+00,-2.150787284074007211e+00,4.948557092475843966e+00
7.530149421262328779e-01,-2.484152974044499018e+01,-5.022938860928102933e+00,-5.076652778254180376e-01,1.280564563846321668e+00,4.909263606815622794e+00
8.838455946711095690e-01,-2.227138568617275638e+01,-5.984117623704727329e+00,2.379445111604943541e+00,3.351325902246538035e+00,4.324502526190100227e+00
6.237829116577973121e-01,-2.093884045686353090e+01,-4.616539650270047979e+00,2.174114285872382091e+00,1.557947513253207017e+00,4.371053243164190860e+00
3.807093079920153555e-01,-2.187152753610195433e+01,-3.950237504214332507e+00,5.763272418777428685e-01,2.643875145918389014e-01,4.272916621124612568e+00
8.633845364674925804e-01,-2.111800728738307953e+01,-5.032135792076587677e+00,3.465499162673950195e+00,3.671474561095237732e+00,4.541843050515391944e+00
1.940021339305143533e-01,-2.106269586628070201e+01,-4.707139509560156476e+00,2.245215172025063488e+00,1.099081833777172168e+00,4.348313258073872589e+00
2.575228596189396701e-01,-2.132443593161418960e+01,-4.733033203281906687e+00,3.861577640040490866e+00,-2.273817530430670253e+00,4.960687797954641098e+00
3.107674014520056538e-01,-2.161950464773384439e+01,-3.855452904780795720e+00,7.802643258142937244e-01,3.542869140874724265e-01,4.300460423988827330e+00
4.605088334125125304e-01,-2.347234529941631465e+01,-5.461156576517097072e+00,4.635474313976909677e+00,7.324689123788082901e-01,4.696401761911882744e+00
8.897986076772212982e-02,-2.521304576843976974e+01,-6.153751201927661896e+00,2.813152283430099487e+00,-2.444620341062545776e+00,5.273699977791049598e+00
3.132779337465763092e-02,-2.130690163373947144e+01,-2.793851621448993683e+00,1.967721566557884216e+00,1.194815337657928467e+00,4.725430255180337547e+00
5.367143470793962479e-01,-2.362216088175773621e+01,-4.955332577228546143e+00,5.129398956894874573e+00,1.598791331052780151e+00,4.407118813490607856e+00
4.911220408976078033e-01,-2.287700764089822769e+01,-5.831712037324905396e+00,3.398000620305538177e+00,-7.218741849064826965e-01,4.435709935968854545e+00
8.755152425827696927e-01,-2.073078851227895214e+01,-4.667995551856307657e+00,2.379196614139679422e+00,1.989994065126107659e+00,4.589535266098750732e+00
5.333947985646843026e-01,-2.324648129597585466e+01,-5.606756826872683064e+00,4.928387547039152494e+00,5.188629534807821519e-01,4.682847649946893398e+00
5.588003545999526978e-01,-2.415951189398765564e+01,-4.225919522345066071e+00,7.145936787128448486e-01,2.029420770704746246e+00,3.989887603914477943e+00
2.731776805594563484e-01,-2.345773188769817352e+01,-4.648586049675941467e+00,2.194715283811092377e+00,1.959177576005458832e+00,4.261770160293319343e+00
6.091607526542599516e-01,-2.354987318900222704e+01,-5.287094005163257115e+00,3.313016681196484292e+00,1.566638794901645593e+00,4.560096670178571898e+00
7.080759782687073844e-02,-2.253161097757664422e+01,-5.369641315343112176e+00,4.038011411280057139e+00,2.489994206199355187e+00,4.699307198268344976e+00
7.086916174739599228e-01,-2.488494347780942917e+01,-6.177259750664234161e+00,3.757227391004562378e+00,9.331706911325454712e-01,5.084132613038756965e+00
5.830518119037151337e-01,-2.137642944604158401e+01,-4.499634742736816406e+00,2.261559285223484039e+00,-2.045991241931915283e+00,5.066154950654246925e+00
1.300467625262488602e-01,-2.374158836841638376e+01,-6.164914323749130176e+00,5.079481287093166486e+00,3.283555784528006338e+00,4.866057803747729338e+00
6.054863473400473595e-01,-2.578623804450035095e+01,-5.882976062595844269e+00,2.986372500658035278e+00,3.934888012707233429e+00,5.458907083964088081e+00
4.659391809254884720e-01,-1.893086203187704086e+01,-5.879865787923336029e+00,6.205284759402275085e+00,4.870853856205940247e+00,5.695794658159949897e+00
3.421411169692873955e-01,-2.440340975672006607e+01,-5.530607074499130249e+00,6.657100878655910492e+00,-1.823668360710144043e+00,4.715850056504943488e+00
4.626408563926815987e-01,-2.563230679929256439e+01,-5.233569279313087463e+00,2.963713906705379486e+00,4.213063627481460571e+00,4.886125200783946632e+00
3.568679207113501506e-01,-1.935698283522307861e+01,-4.419304023471225307e+00,4.360551354170827398e-01,-5.719705009090469972e-01,4.141669411469592887e+00
3.289296338334679604e-01,-2.549052381515502930e+01,-5.655634947121143341e+00,2.466771751642227173e+00,3.835117325186729431e+00,4.826512084698417304e+00
7.525706635788083076e-01,-2.012239891290664673e+01,-4.275362938642501831e+00,2.802461177110671997e+00,6.450709253549575806e-01,4.052919623797872184e+00
2.867936957627534866e-01,-2.111353582888841629e+01,-4.345009528100490570e+00,1.328826025128364563e+00,-2.460962794721126556e+00,4.654271123355367301e+00
2.666167849674820900e-01,-2.529284574091434479e+01,-5.034530550241470337e+00,4.270826891064643860e+00,3.226903900504112244e-01,4.467965116148927329e+00
6.407371545210480690e-01,-2.108908230066299438e+01,-4.061820842325687408e+00,1.834718659520149231e-01,6.496962457895278931e-01,4.642394789850452064e+00
7.684361990541219711e-01,-2.288652074337005615e+01,-4.081917397677898407e+00,4.025989547371864319e-01,1.866173617541790009e+00,5.309727640247085212e+00
9.019176913425326347e-01,-2.130231433361768723e+01,-5.964744724333286285e+00,3.619113683700561523e+00,8.054095208644866943e-01,4.741839376634099601e+00
6.526854744773405992e-01,-2.061871653753508582e+01,-4.436353907781801276e+00,1.706142337888448601e+00,1.206190242097406662e+00,3.923129270953812586e+00
3.570558195933699608e-01,-2.087567280232906342e+01,-4.490933172404766083e+00,6.710581779479980469e-01,-1.175596319139003754e+00,4.501582992619016288e+00
1.176631757989525795e-01,-2.280599168688058853e+01,-2.960392445325851440e+00,-7.507939785718917847e-01,-7.528973072767257690e-01,5.115862296318748115e+00
5.329757137224078178e-01,-2.063283231854438782e+01,-4.096602082252502441e+00,4.633445620536804199e+00,3.638807766139507294e+00,4.264021248912551521e+00
3.765807589516043663e-01,-2.372143939137458801e+01,-6.466169409453868866e+00,6.435937464237213135e+00,4.505709908902645111e+00,5.108916190808751701e+00
1.142757879570126534e-01,-2.215920580923557281e+01,-5.853739663958549500e+00,5.032912634313106537e+00,4.306652247905731201e+00,5.085255966877677558e+00
6.839059945195913315e-02,-2.507488948106765747e+01,-4.793701507151126862e+00,3.146880686283111572e+00,-1.176116615533828735e-02,4.524374054169395087e+00
8.254597558349785480e-01,-2.051956183574222337e+01,-4.381227254520859482e+00,1.820732929015631774e+00,9.258692352345158083e-01,3.731038071981287452e+00
9.883770709857344627e-01,-2.411859490722417831e+01,-5.616099275648593903e+00,2.029036194086074829e+00,-1.195961296558380127e+00,4.669089538401105521e+00
6.285743732005357742e-01,-1.928609131276607513e+01,-3.706919111311435699e+00,1.427153460681438446e+00,-3.898519948124885559e-01,4.273171534186341880e+00
1.410112893208861351e-01,-2.386794373393058777e+01,-4.423106133937835693e+00,2.767379887402057648e+00,-4.119080826640129089e-01,4.091788863187768577e+00
1.336660319939255714e-01,-1.938375870883464813e+01,-5.154258646070957184e+00,4.452364787459373474e+00,3.370358526706695557e+00,4.094858941977956412e+00
7.242137342691421509e-01,-1.829206865280866623e+01,-4.889273062348365784e+00,5.057577162981033325e+00,3.785801678895950317e+00,4.568542768603303550e+00
6.243866998702287674e-01,-2.158885885775089264e+01,-4.569502897560596466e+00,3.455067664384841919e+00,3.344594396650791168e+00,4.227061891352870582e+00
9.131889427080750465e-01,-2.583109952509403229e+01,-7.175449423491954803e+00,3.370019383728504181e+00,1.234811879694461823e+00,5.335027248954513190e+00
7.995715197175741196e-01,-2.140592493861913681e+01,-3.041652284562587738e+00,1.006699502468109131e-01,-1.863676674664020538e+00,4.377194871550538657e+00
7.663604449480772018e-01,-2.300692335516214371e+01,-6.573490336537361145e+00,6.887507855892181396e+00,4.120019420981407166e+00,5.951633156633117316e+00
7.762128096073865891e-01,-2.439335916936397552e+01,-6.456256225705146790e+00,6.540417313575744629e+00,4.817842677235603333e+00,4.242127054726817725e+00
3.756591405008396500e-01,-2.303009880248050578e+01,-5.284468745034008208e+00,4.194039854123288613e+00,2.802821278282058071e+00,4.427579135053576920e+00
8.999479617923498154e-01,-2.043239671736955643e+01,-5.192336834967136383e+00,2.574784137308597565e+00,1.884985692799091339e+00,4.890251097625234245e+00
3.617446789094038717e-01,-2.380219550682333818e+01,-5.339572028400776382e+00,4.001265822710244890e+00,1.329149814668252771e+00,4.694697784720535338e+00
1.106016859412193298e-01,-2.311076208204030991e+01,-5.239700257778167725e+00,3.429858624935150146e+00,3.588554441928863525e+00,4.789530997520425437e+00
1.581428823992609978e-01,-2.578887233883142471e+01,-5.809738516807556152e+00,3.210675865411758423e-01,2.756995558738708496e+00,3.503580530529954551e+00
1.526226755231618881e-01,-2.240311962366104126e+01,-5.160275384783744812e+00,2.850883930921554565e+00,1.537633977830410004e+00,5.207072527503707526e+00
5.818887390196323395e-01,-2.368210832029581070e+01,-4.913298852741718292e+00,2.287747532129287720e+00,5.353272706270217896e-01,4.386005060171821235e+00
3.608126100152730942e-02,-2.040794768184423447e+01,-4.684045776724815369e+00,3.998281911015510559e+00,-1.866681918501853943e+00,5.449176942354180930e+00
3.607817403972148895e-01,-2.309783387929201126e+01,-4.478814847767353058e+00,4.028626754879951477e+00,1.882902830839157104e-01,4.083917127346732734e+00
6.428489210084080696e-01,-2.235364177823066711e+01,-6.017822317779064178e+00,5.777540229260921478e+00,4.039325147867202759e+00,4.558812932467200874e+00
2.317486330866813660e-02,-1.898456694185733795e+01,-4.218500636518001556e+00,3.119336724281311035e+00,-1.831861697137355804e+00,4.116472152417638419e+00
8.874199157580733299e-01,-2.115207196027040482e+01,-6.899159431457519531e+00,4.752330087125301361e+00,9.162619486451148987e-01,4.524763246422746299e+00
5.111171538010239601e-01,-2.542230694741010666e+01,-5.513029165565967560e+00,4.537980645895004272e+00,2.894454635679721832e+00,5.074487970566489814e+00
0.000000000000000000e+00,-2.218048287342431024e+01,-4.987232208732260474e+00,4.518020561408504499e+00,1.506196028062129155e+00,4.690723397803225225e+00
8.675277234341829402e-01,-2.122566392514951517e+01,-4.412988659589287543e+00,2.756545044785057907e+00,1.532251059213489919e+00,5.433725574664920011e+00
4.652587417513132095e-01,-1.827729233354330063e+01,-4.869098462164402008e+00,1.518149800598621368e+00,9.233621731400489807e-01,4.983486776596047996e+00
2.914584846426984122e-01,-2.114681893742049468e+01,-5.398513806260865522e+00,2.228554100561986662e+00,7.133973415584212718e-01,4.191190985182777773e+00
4.549237424507737160e-01,-2.359936535358428955e+01,-5.686413645744323730e+00,3.886011995375156403e+00,-2.954845353960990906e-01,5.429154494201877235e+00
4.973826557397842407e-01,-2.473514143377542496e+01,-7.171310134232044220e+00,6.006704322993755341e+00,4.541860595345497131e+00,4.301399198716619132e+00
5.407492574304342270e-01,-2.352321758866310120e+01,-4.911430992186069489e+00,1.822511076927185059e+00,-2.361690022051334381e+00,5.610682324862220405e+00
1.747132837772369385e-01,-2.599372781068086624e+01,-5.429523706436157227e+00,2.598421335220336914e+00,4.120492935180664062e+00,3.911751167273261665e+00
2.085725682136038983e-01,-2.278462173830799387e+01,-5.980976396294688691e+00,5.637323712653899754e+00,-2.800468076015739244e-02,4.758166545875972986e+00
3.996005981112015631e-02,-2.585286102766473704e+01,-6.161495787232708743e+00,2.563138266053576420e+00,3.980971453491097378e+00,4.568434899776388392e+00
8.639382343806883968e-01,-2.104071274278589243e+01,-4.802509119406504823e+00,2.173157748002977563e+00,-2.300305836735895504e+00,4.371578174575116549e+00
5.147742885088627540e-01,-2.054825424965304848e+01,-4.336564605658589144e+00,2.772768582639222767e+00,1.684902654884126827e+00,4.206659985280571057e+00
6.753004807978868484e-02,-1.910948456078767776e+01,-5.700307652354240417e+00,5.352466851472854614e+00,4.912426389753818512e+00,5.147223779356219886e+00
2.078716084361076355e-02,-2.193097303807735443e+01,-4.740949064493179321e+00,3.236804842948913574e+00,3.686759427189826965e+00,4.492931322550513862e+00
1.074452137767165499e-01,-2.196398058423795518e+01,-4.463907061711081425e+00,2.652019843331120619e+00,-1.758298429806392393e+00,4.881676099148736014e+00
7.586055463179945946e-01,-2.059868383407592773e+01,-2.963347233831882477e+00,-9.191001132130622864e-01,-1.019520357251167297e+00,3.799402439391353248e+00
9.381849551573395729e-01,-2.238709991425275803e+01,-5.418959133327007294e+00,4.161757148802280426e+00,4.696488499641418457e+00,3.924524714594819663e+00
2.761789653450250626e-01,-2.419723244011402130e+01,-4.922794461250305176e+00,1.403251789510250092e+00,-2.138693772256374359e+00,5.610757635330894111e+00
7.154091866686940193e-01,-2.335864263027906418e+01,-3.620541043579578400e+00,9.330071136355400085e-01,-4.452522844076156616e-02,4.131842011010387061e+00
1.636449638754129410e-01,-2.235080878436565399e+01,-4.306521981954574585e+00,6.007124483585357666e-02,-2.326583512127399445e+00,4.299264912849404929e+00
3.353833872824907303e-02,-2.175836352258920670e+01,-4.123337902128696442e+00,1.787775032222270966e+00,-5.503470003604888916e-01,4.888336227631309150e+00
3.469861634075641632e-01,-1.817201060801744461e+01,-6.088718049228191376e+00,2.168599650263786316e+00,4.876392088830471039e+00,3.014232703840472816e+00
8.920024361727405537e-01,-2.185393817658836113e+01,-5.633320589240202736e+00,1.484565214717216586e+00,2.587322435180066105e-01,4.632516786788877461e+00
9.642553451922826202e-01,-2.586550953929952712e+01,-6.856476384177453198e+00,3.412202028511392538e+00,5.450915272842861148e-01,4.175867745964557898e+00
8.723297202347005674e-01,-2.549741607025794465e+01,-4.261398110291310992e+00,1.415485288954403842e+00,1.705288154570006709e+00,4.187482454219629169e+00
6.575741050494350315e-01,-2.360354386848135988e+01,-4.779195382475410980e+00,4.618605065395135156e+00,2.078243506221350234e+00,5.143478477975777174e+00
8.035714962808288009e-01,-2.545647398884780799e+01,-6.032090824917551330e+00,9.330619084285788345e-01,-2.940348525436035088e-01,3.778579964171129291e+00
5.559113429426860709e-01,-2.364404877692780715e+01,-4.919119113048555647e+00,1.510258307549553258e+00,-2.226155603586614795e+00,5.344087938585261099e+00
7.017434852018026303e-01,-2.314736617536154739e+01,-4.706653549704732598e+00,2.220791214488832654e+00,-2.400487241103279157e+00,5.602247376542568880e+00
3.307734712369909125e-01,-2.363893297483056699e+01,-5.539242900249516488e+00,8.560621546659452630e-01,-2.460973136038762110e+00,3.678490343419499986e+00
1.769970201515204400e-01,-2.291172414227479948e+01,-5.315669814915637836e+00,4.336831787336164368e+00,1.594896656326984630e+00,4.670362824119878020e+00
3.874851687139906908e-01,-2.092193641463345699e+01,-4.690942975838458651e+00,2.385931911066072164e+00,1.179022017995557281e+00,4.301715694092900222e+00
8.495151217327158166e-01,-1.815268247323429662e+01,-4.041789870128527973e+00,6.915238816616189332e-01,-2.854464624708818454e-01,4.229923248917272005e+00
8.865579962730407715e-01,-2.364833092689514160e+01,-5.513238191604614258e+00,4.786199569702148438e+00,4.830963134765625000e+00,5.856156722998359321e+00
5.359481706134806567e-01,-2.160788315764115097e+01,-5.191099180543058189e+00,1.613905550975666126e+00,4.120888287174255815e-01,4.996118771235793510e+00
9.544570222942473370e-01,-2.302046854748524396e+01,-5.375903412101703083e+00,5.476931160811394861e+00,4.250961699283547723e+00,4.039379873608713645e+00
5.664926936290951565e-01,-2.138844186788941570e+01,-4.466154317273514529e+00,1.376713754133615852e+00,-1.704708193181001308e+00,4.809713610375215609e+00
5.095369830399820721e-01,-2.158179581452696993e+01,-5.087168985163853741e+00,3.226485452008399424e+00,4.872910164892955365e+00,4.473514465366624115e+00
5.124300332207368802e-01,-2.025939251210936476e+01,-4.592883877259054337e+00,2.600583169331004640e+00,2.677082372928244247e+00,3.357594731008900268e+00
3.617041046601338072e-01,-2.406123952013260947e+01,-6.032870722561322729e+00,4.430284892235005323e+00,8.418912129598099536e-01,5.540173011177196294e+00
1.741320842418409010e-01,-2.171681581626171109e+01,-4.310387898604720824e+00,1.816282748558357474e+00,-1.775823071884123694e+00,4.937933028944266667e+00
8.819681952908018374e-01,-2.479321084555669685e+01,-6.785036235631211277e+00,2.919044665276806949e+00,1.037407246486534484e+00,4.760292368145754516e+00
2.028982889172018522e-01,-2.152785837537776459e+01,-4.850712221391911605e+00,2.401456318869713780e+00,6.853587298615466672e-01,3.830067782098091733e+00
2.236812468286112354e-01,-2.331785983427552722e+01,-5.284288780916632788e+00,1.282696860848390408e+00,-3.039708348737274815e-02,4.519440086541814949e+00
4.492400986579530436e-02,-2.282464626940409502e+01,-5.845466854332954654e+00,4.914388582520023974e+00,1.593816627695827881e+00,4.550039046155072597e+00
3.631060344803587747e-01,-2.344347478273487440e+01,-4.804729588322537381e+00,4.245555173462374654e+00,2.323711556553440319e-02,5.876917630005322302e+00
4.569400288164615631e-02,-2.084111065417528152e+01,-2.801481515169143677e+00,9.937057122588157654e-01,1.522132046520709991e+00,5.006022737717368720e+00
7.721381576461913143e-01,-1.987829386248727559e+01,-3.667474905260687201e+00,9.554529237472330072e-01,-1.859813018090592962e+00,3.935730805677282618e+00
6.369929965585470200e-01,-2.417604391276836395e+01,-4.632011301815509796e+00,4.935343824326992035e+00,-4.763922914862632751e-01,5.990277209675052283e+00
3.624847834582616835e-01,-2.059428402313193374e+01,-4.257555483836770627e+00,3.088404009533466610e+00,6.500114499122953138e-01,4.929284205018871212e+00
1.769838798791170120e-01,-2.413347645103931427e+01,-4.434422411024570465e+00,-4.445882737636566162e-01,1.165963061153888702e+00,5.958370534127690910e+00
6.333452246572310873e-01,-2.489326405584321833e+01,-4.761465201083410648e+00,5.718559955792509308e-01,-2.456648215160571525e+00,4.438379661611978833e+00
6.174141441734699587e-01,-2.274276140863260309e+01,-4.810121462652538149e+00,4.513672649842626505e+00,7.770500795716118736e-01,4.378989042794080966e+00
6.185874120406277266e-01,-2.527929507526651065e+01,-6.091446162617430993e+00,2.627874547211662470e+00,9.940943678125286898e-01,4.673294395662132672e+00
6.279848413944836283e-01,-2.445825663869077715e+01,-5.912421431180704623e+00,5.307019599286535438e-01,-2.403724586692345344e+00,4.148455207579108794e+00
5.945867407502114510e-02,-2.531452746244535490e+01,-6.440185790909884744e+00,2.528453428096264943e+00,8.542277260121575733e-01,4.737737135368002228e+00
3.731848499116305895e-01,-2.430745487637469893e+01,-5.168594121553549137e+00,4.102239122166393415e+00,2.746548037933702169e+00,5.069790801830609261e+00
3.481761073554974217e-01,-1.968714832062858733e+01,-5.596953077753843431e+00,3.434425921752530364e+00,1.912394456379496122e+00,4.670061651161186767e+00
4.886205553620961983e-01,-2.512151020133946133e+01,-5.956341539476142088e+00,2.921198973649460129e+00,5.150355638073544906e-01,5.479655323161065184e+00
5.699485303169118944e-02,-2.400892917226423151e+01,-5.216007029081906055e+00,2.636479660988969798e+00,1.271769445109460106e+00,4.546948071661054414e+00
4.733210963606985372e-02,-2.483153268269628811e+01,-6.334941151893549005e+00,3.109000869625578201e+00,-6.999709747645213032e-01,5.209050556761953388e+00
2.416258210030411413e-01,-2.288436561361804422e+01,-5.055269004592217286e+00,3.438908701862916306e+00,-1.466388128475880404e+00,4.627873519012116077e+00
5.120512714022736889e-01,-1.897947560681820534e+01,-3.870051234741941126e+00,7.390571161171937131e-01,-7.250185727591217377e-01,4.130290919668695437e+00
3.734478892513563020e-01,-2.335549967818481321e+01,-6.185254010761449983e+00,6.131200152002749704e+00,3.880696113978208572e+00,4.830010760679625648e+00
4.218309738685021015e-01,-2.300503478132155877e+01,-4.442493673977931934e+00,1.045934785553523261e+00,-8.827196503444548203e-02,4.434864810826996795e+00
3.588140461522077440e-01,-2.204792816924353716e+01,-5.220333190877922469e+00,3.757410205137298398e+00,4.166764486319491922e+00,4.631945712150681516e+00
2.812015402054769964e-01,-2.235839568838562030e+01,-5.226832248718164209e+00,3.579755196109946969e+00,3.327174696504821227e+00,4.638957915223036466e+00
6.030597941114812510e-01,-2.547996305463924926e+01,-5.765840703822864732e+00,3.367383067090623072e+00,-1.589206166039016876e+00,5.026192409487755697e+00
9.181568631902337074e-01,-2.220092108845710754e+01,-5.878717660903930664e+00,3.717552453279495239e+00,2.906179450452327728e+00,4.935173065757491706e+00
0.000000000000000000e+00,-1.955551562063072524e+01,-3.638041450052504011e+00,-7.604393995163258868e-01,-1.356215654729640896e+00,4.110386887395452327e+00
7.376727468762038775e-01,-2.523949314659407861e+01,-6.076937696014709012e+00,2.284038647368044739e+00,5.043224542652434694e-01,5.069581057415693870e+00
9.440814800834009812e-01,-2.320332051645541327e+01,-5.357765882831861504e+00,2.897118010280978151e+00,3.873025838568961987e+00,3.630417869482326587e+00
2.338466273021552744e-01,-2.342552626013930350e+01,-5.571342509735070614e+00,3.362140009024602083e+00,1.209885827456210317e+00,4.439514995877210879e+00
6.281242480213250490e-01,-1.852525992847845870e+01,-4.512774174935044513e+00,-8.377331249590763695e-01,-1.900361756041191730e-01,4.143799267494333805e+00
9.847218114440123848e-01,-2.044548789113082066e+01,-4.945117118057096306e+00,2.551687000638925173e+00,1.956210075644207569e+00,4.845610561205274003e+00
3.304076420214396292e-01,-1.960291010188289107e+01,-4.980812958452361272e+00,4.005576904553125317e+00,3.800873930562104874e+00,3.928873369686044725e+00
3.190007307352110688e-01,-2.516233051935014231e+01,-5.549087613617976089e+00,3.028595798838009667e+00,-1.190398767679556880e-01,4.700440564557403000e+00
3.912547288114600619e-01,-2.203923230796251076e+01,-4.796988665821014131e+00,1.627075336454971488e+00,2.837777988869486512e-01,4.453194974269494288e+00
7.314175240101155051e-01,-2.501116969582003691e+01,-5.803560785439923819e+00,3.062196252760453152e+00,1.515639788667411114e-01,4.899942923253495231e+00
2.378956134079577289e-01,-2.160735849855722535e+01,-4.404701375420215115e+00,1.825684283306321376e+00,-2.337695157472693186e+00,5.020328545443271118e+00
5.512503058264065503e-01,-2.448571231985811991e+01,-5.478756184597193268e+00,2.062106768899103937e+00,1.588728563949276529e-01,4.674054693277202688e+00
1.472691405203496381e-02,-2.178439456269934382e+01,-5.369569511561802067e+00,3.261819544613747901e+00,3.301142867860401342e+00,4.680366880077591496e+00
8.023141600244889649e-01,-2.425909384580543104e+01,-5.331298986503560933e+00,1.785321144601466958e+00,-1.003020196560551858e+00,4.768260993071407938e+00
2.609335592378097535e-01,-2.285730325212964686e+01,-5.338662266039349014e+00,2.566523386146640551e+00,-1.988236766967672153e+00,4.207811701785018954e+00
8.389595680588046722e-01,-1.889036223147402538e+01,-4.410705738693332378e+00,1.042461225361972499e+00,-5.402571633170499821e-01,4.343687329408949083e+00
3.853659394491081858e-01,-1.921293138059557037e+01,-3.698695024020295818e+00,-1.000000000000000000e+00,-1.660487647842911363e+00,4.036600119701472700e+00
1.754837848281284307e-01,-2.373305164732926187e+01,-6.303260649569247143e+00,6.850654767020587066e+00,1.596637111445390111e+00,5.118254971187217173e+00
8.365103856179395558e-01,-2.465635937117863818e+01,-4.891050601910700735e+00,2.306370798482483941e+00,1.125350037863480646e+00,4.486737099561542763e+00
2.146074328397900854e-01,-2.297983180539195658e+01,-4.157565023348124278e+00,3.820246956880846145e+00,-2.500000000000000000e+00,4.530138598571047837e+00
5.214313028412576045e-01,-2.121211357052631286e+01,-4.781660002439722668e+00,4.575377488141094129e-01,1.928849555212579503e+00,4.361014018315873209e+00
1.450668250570035789e-01,-2.423776813605839209e+01,-5.695586022059954345e+00,7.000000000000000000e+00,2.596397358057632054e+00,4.907547160837351541e+00
1.471169917097403801e-01,-2.352418108482538628e+01,-7.573953085036948529e+00,2.305772248713413575e+00,-7.251740033011956355e-01,4.829007252811020834e+00
4.579455765787233679e-01,-2.364949665374992094e+01,-5.177382880115468211e+00,7.000000000000000000e+00,2.073883610284126711e+00,4.797619824990346338e+00
0.000000000000000000e+00,-2.096725078880357884e+01,-3.129639439204422668e+00,7.600465963382744272e-01,-2.475230555339631877e+00,4.237641256439231618e+00
7.846454338797882455e-01,-2.392354082706651042e+01,-5.248254410190280161e+00,1.466084499385083895e+00,-1.422060185206607485e+00,4.684317309313269284e+00
8.427441498291435851e-01,-2.565962469822463277e+01,-6.882704777396984497e+00,2.530542200239935813e+00,2.872369506564557362e+00,4.542038341554553327e+00
4.219773093040323775e-01,-2.001665596528143354e+01,-3.697844386219222290e+00,-3.300694479376139467e-01,-1.709086309695420525e+00,3.678704834439048721e+00
7.604032254863046791e-01,-2.112477876022164835e+01,-4.647371310720298965e+00,1.974545786347860155e+00,7.452113723185642691e-01,4.458923572869740504e+00
1.358802565316831745e-01,-2.211139478505192102e+01,-5.233178836984190951e+00,4.265298309462272286e+00,3.219107559131471064e+00,4.707619173300085613e+00
3.074988925477187274e-01,-2.051223557760366134e+01,-3.807872149171581455e+00,5.163777212627887359e+00,3.412360971551504640e+00,3.726582302985955053e+00
2.505845864086609920e-01,-2.222717909864512009e+01,-5.498025907821107339e+00,2.402832463248202988e+00,3.874156312484207998e+00,4.665228976879800982e+00
1.418634385467629211e-01,-2.510206849816443508e+01,-6.106482563012957776e+00,3.548995509773596346e+00,-1.853685198475746754e+00,5.150631521446047856e+00
1.146242454277801998e-01,-2.272877757613985494e+01,-5.758979876236133499e+00,3.634749260616221278e+00,2.479394050728429111e+00,4.895937297930901266e+00
2.658446982871703890e-01,-2.011895594965674405e+01,-4.084032251239179345e+00,-1.000000000000000000e+00,5.347470939844096716e-01,4.221204211660823269e+00
2.258036956191062927e-01,-2.355964662879705429e+01,-4.011213392019271851e+00,5.921007409691810608e+00,-6.441781297326087952e-01,5.328716487979629157e+00
3.613321027049480327e-01,-2.241880307643722858e+01,-6.174641378787404378e+00,5.340539498362843140e+00,2.676426890279795523e-02,4.644730233012790421e+00
2.086731103275942523e-01,-2.308556733480364898e+01,-4.893711533572833616e+00,5.075159398063886051e+00,-4.017081718638575438e-01,4.704573898230488105e+00
2.837015885302542895e-01,-2.295956294581660018e+01,-4.941034690119087358e+00,1.480998853349670297e+00,9.817728216763381421e-02,5.318558898832730364e+00
9.982411128439249159e-01,-2.367570891046454662e+01,-6.465813793183018632e+00,6.871033737673856834e+00,4.315797217172405276e+00,4.298722910913451045e+00
5.913809945244897781e-01,-2.192312595885484683e+01,-5.898335107520666476e+00,2.303187560922908883e+00,2.592887436431968062e+00,5.729566527242903717e+00
3.182444988028164112e-01,-2.105714021928653068e+01,-4.492649996508821353e+00,1.684950188526542325e+00,1.048768307680972844e+00,4.418148585218922619e+00
1.204325242786854627e-01,-2.255677245022617328e+01,-5.047385374682316517e+00,3.340402297870490145e+00,3.691029187195318695e+00,4.679340782028669210e+00
0.000000000000000000e+00,-1.982870860087047760e+01,-3.941377818087544505e+00,9.578961691564910619e-02,-2.349748342512213650e+00,4.241592042158226938e+00
1.223083714596578803e-01,-2.160853325134684155e+01,-4.525820954675323193e+00,1.949374682297599692e+00,-1.754127730585383349e-01,4.460361482436908886e+00
6.593872717617677015e-01,-2.177248718108416270e+01,-4.629477552836204879e+00,1.200323924913551332e+00,1.948711545062435935e+00,4.361605066265529906e+00
2.637877209882930618e-01,-2.459969348757235608e+01,-6.199745119795831094e+00,2.905525665649256961e+00,4.028735089127096103e+00,4.897169737938225964e+00
4.175057335504269718e-01,-2.051900010320068546e+01,-4.106055718063155169e+00,1.669884205542524924e+00,5.218682024026735089e-01,4.345402101973759201e+00
3.577720773951267308e-01,-2.387592328147108134e+01,-5.234936580117903304e+00,6.085375721381000247e+00,4.570946188112152697e-01,4.794990753884357026e+00
9.047293003796347266e-01,-2.134894793496829735e+01,-4.423430550585521814e+00,1.692597687788865990e+00,-1.452237126411087154e+00,4.464567590329345137e+00
1.421962731959119097e-01,-2.240408587213682523e+01,-5.248888161368645555e+00,2.741421356455368663e+00,5.500000000000000000e+00,4.685486976621708877e+00
4.113122019026784204e-01,-2.135608837400237903e+01,-5.307439116613827501e+00,1.227894678853699073e+00,2.230764125677978438e+00,4.482354269072353681e+00
7.649262893404716879e-01,-1.846452114258779886e+01,-3.804355147821792738e+00,1.210639077120466700e+00,1.145421462804634277e-01,4.658747166995993005e+00
3.932122690603137016e-01,-2.097441814839839935e+01,-3.004176929593086243e+00,6.365411892533302307e+00,1.652543395757675171e+00,5.530943286961057304e+00
9.293460335133175709e-01,-2.491776203323794903e+01,-6.619006589211055669e+00,1.362900724403410591e+00,3.265249894546650822e+00,4.708999066724960159e+00
2.010461189353056621e-01,-2.272545570096812995e+01,-4.963248503448967064e+00,2.549788638386254469e+00,4.215326614012148809e+00,4.654374723136053049e+00
1.000000000000000000e+00,-1.933376206467984559e+01,-3.393664154896259610e+00,1.548504253020577259e-02,-2.392286561084811858e+00,3.063717503499155725e+00
0.000000000000000000e+00,-2.190083782554159697e+01,-4.031872983075531991e+00,2.511441840062206943e+00,-1.605604403749969489e+00,4.442596018840972327e+00
8.414727833049778782e-01,-2.453315232166705684e+01,-6.120450937964597493e+00,4.627599007438755407e+00,3.341841915914821382e+00,4.716073183299595684e+00
7.414962748721468100e-02,-2.296157289473126184e+01,-5.399563722045193082e+00,6.313050869689834421e+00,1.616168654760623102e+00,4.824545480171008371e+00
1.000000000000000000e+00,-1.910437765320823189e+01,-4.451249422911052633e+00,6.747465980080296966e+00,-1.073462132799578583e+00,4.208648502362860810e+00
5.179643640370654722e-01,-2.442165002055897816e+01,-5.544887215317154450e+00,3.159625003475181160e+00,6.263742321751814002e-01,4.904756380733562793e+00
0.000000000000000000e+00,-2.349069001083925556e+01,-4.575139549745048662e+00,5.750584945246476565e+00,2.955056107258604126e+00,4.766308022555501900e+00
1.365870476891712926e-01,-2.229948384758018776e+01,-5.358995344168478780e+00,3.382009043813443583e+00,4.315715693343536330e+00,4.684102764915725636e+00
7.330242656452246042e-01,-2.069104027269560930e+01,-4.355641265137565554e+00,6.872377316344945086e+00,4.779176719779625770e+00,4.517766084917107072e+00
0.000000000000000000e+00,-2.039843359361414699e+01,-3.813480639971136732e+00,8.208364387330575607e-01,-3.289840945232450076e-01,4.271584708357040405e+00
2.851160212153887596e-01,-2.040665286153804203e+01,-5.924693819941860617e+00,1.779104498050648520e+00,5.500000000000000000e+00,4.565240007625111396e+00
9.471109672490977127e-01,-2.517504049894755980e+01,-5.885899727822847538e+00,2.943898951116844742e+00,1.395487210099120468e+00,4.654630154445148271e+00
1.000000000000000000e+00,-2.426554057685880395e+01,-6.147429188554049517e+00,5.554186771962799973e+00,3.733523524960413731e+00,5.303530107550999517e+00
5.678782929819877756e-01,-2.138912785059288879e+01,-4.571367169028751398e+00,2.081433242913327764e+00,2.960765508948027813e-01,4.566682412653698897e+00
7.121407261055344717e-01,-1.800000000000000000e+01,-1.626322527997383416e+00,-7.109185977348367880e-01,-2.336200958924939730e+00,3.800595916046759282e+00
1.810646473846819760e-01,-1.904219673939172353e+01,-2.798472887156903344e+00,-1.571755855625816545e-01,-6.292700153977959232e-01,4.060015410502205491e+00
7.444699278331864400e-01,-2.207669579077914790e+01,-4.909485707625464102e+00,1.937291109871803751e+00,-2.855125079252488485e-01,4.362128533025821042e+00
1.440246868313602158e-01,-2.231938362127462128e+01,-4.862338638231741506e+00,2.733069942293023580e+00,7.932810301272210651e-01,4.603180278918324930e+00
8.569441813286001741e-01,-2.600000000000000000e+01,-6.167157779154694097e+00,4.199870768794423448e+00,2.360918873790671224e+00,4.774627962800765069e+00
9.396830332637760852e-02,-2.251649073485229380e+01,-5.085096154672517521e+00,2.782337150684312643e+00,2.308036924954660396e+00,4.668256333452500684e+00
4.212496578693389893e-01,-2.418808910250663757e+01,-3.942091040313243866e+00,-3.038344830274581909e-01,7.224413752555847168e-02,4.458275125717857001e+00
9.222259738859585054e-01,-2.267256239845788102e+01,-4.174388586642845844e+00,6.781391518367040128e+00,-2.500000000000000000e+00,4.453333964180295368e+00
0.000000000000000000e+00,-2.264782328494120378e+01,-4.839252535846267023e+00,3.585192264975131327e+00,3.110657550918712655e+00,4.693371774825688902e+00
4.784479899155228977e-01,-2.095425415713870265e+01,-4.768424313420632110e+00,5.747369831713137200e-01,7.711248600613536119e-01,4.343132854914898644e+00
4.924920978612751243e-01,-2.010542200084382003e+01,-3.900109342675087909e+00,6.040729555217747127e+00,-1.510853889454039090e+00,4.383591815485961440e+00
1.000000000000000000e+00,-1.908687426073979765e+01,-5.851150862307746614e+00,7.000000000000000000e+00,3.239255818169378465e+00,4.344299679022499028e+00
6.456903839403738132e-01,-2.396117554997103838e+01,-4.365995171124907870e+00,5.950009058438415543e+00,-1.923128393346635878e-01,4.653769958810717533e+00
1.355647229218491512e-01,-2.285451843096049629e+01,-7.932311515862469520e+00,7.000000000000000000e+00,4.695734041014512528e+00,4.953724566752558012e+00
1.000000000000000000e+00,-2.123659225004075424e+01,-4.606197906138934428e+00,4.272451674543000344e+00,-2.500000000000000000e+00,4.216214512234695455e+00
9.567235132953284538e-01,-2.180661338660210902e+01,-4.815292445694801415e+00,5.710736920793975102e-01,-7.293982616559487875e-01,4.209779840028041953e+00
7.023793882236550878e-01,-2.322776007129448672e+01,-4.959372482400310034e+00,1.210103250322196455e+00,-1.594806442114945932e+00,4.401905229612788517e+00
3.689902185836377857e-01,-2.589866370841335907e+01,-2.148949009483803962e+00,7.000000000000000000e+00,-2.481637786521745603e+00,4.602014807242232663e+00
1.000000000000000000e+00,-2.486522008066895850e+01,-6.384645476907977013e+00,5.995216665840656489e+00,3.514952661193512906e+00,4.524937994588768220e+00
5.320617914881020649e-01,-1.897343770406040875e+01,-5.350294816243460261e+00,2.032029092361298694e+00,3.761690095031295478e+00,4.330857901499924445e+00
5.776773724424534295e-01,-2.047069973505109530e+01,-4.624675181509863009e+00,2.085924165808017428e+00,-8.636121771781964107e-02,4.319142097655594092e+00
1.573706576600670815e-01,-2.199396551400423050e+01,-6.401973709464073181e+00,4.644739910960197449e+00,4.798805557191371918e+00,5.313681931590774177e+00
7.910451565695615361e-01,-2.426688849384983726e+01,-4.442304180242641287e+00,7.000000000000000000e+00,2.439620387906028309e+00,4.712365317835060630e+00
8.537181058652197896e-01,-2.600000000000000000e+01,-5.785773032677155925e+00,2.142734287461733445e+00,-4.836832821821316908e-01,4.830440531425859163e+00
4.244941417914441240e-01,-2.122219384826782829e+01,-4.822774196685272408e+00,1.031807553900012886e+00,1.485621166221694489e+00,4.335564428155008088e+00
3.121187863871455193e-01,-1.961840456724166870e+01,-8.528292506933212280e+00,-9.853538796305656433e-01,-2.191016316413879395e+00,5.407751147991159080e+00
9.093990370026161507e-01,-2.055566829876169166e+01,-5.694232501416332859e+00,5.491517205390308298e+00,4.094448321284050785e+00,3.991384311336170221e+00
9.560026654932176626e-01,-2.324339286056318699e+01,-5.969144671738708219e+00,5.333058501110805594e+00,2.593521817517734362e+00,4.507395701125251897e+00
9.430663701259992537e-01,-2.532108344935486599e+01,-5.394615523983110172e+00,8.898861964716878736e-01,-1.186521022465011344e+00,4.586884050686282244e+00
2.037343455066242814e-01,-2.245767929049922884e+01,-4.785179873268599060e+00,1.431570930568190958e+00,-2.442956809256888739e+00,4.817787835928920792e+00
4.946984238922595978e-01,-2.592984595894813538e+01,-3.163881555199623108e+00,-5.189667567610740662e-01,7.886026874184608459e-01,5.101677292382457374e+00
1.000000000000000000e+00,-1.980692616478699364e+01,-4.173588382425299947e+00,5.267947270506284418e+00,4.900563957160327888e+00,4.305874568775340805e+00
7.780441331962421048e-01,-2.530089692699374382e+01,-5.538600502342323928e+00,1.505696990525431600e+00,1.777484087453659600e-01,4.907658098396194823e+00
1.000000000000000000e+00,-2.361351716976897919e+01,-6.308567152679193768e+00,4.885186750699203273e+00,4.230203452877055348e+00,4.572491034619088346e+00
9.899578120835851314e-01,-2.600000000000000000e+01,-6.107850717588831913e+00,3.401959644332037236e+00,2.783648769366973696e-01,4.857905832222936482e+00
6.741431513294218192e-01,-2.531093092953094015e+01,-3.088370341214971670e+00,3.921109724272596075e+00,3.574187223080017350e+00,4.610538236306741311e+00
1.102301797404906802e-01,-1.800000000000000000e+01,-4.023600257321329643e+00,-8.645062490909628528e-01,4.214562232424138855e-01,4.106406220274170238e+00
7.836579084396362305e-01,-1.831181097030639648e+01,-3.438206195831298828e+00,-7.949783504009246826e-01,1.334486246109008789e+00,3.887697236036994575e+00
3.894193783791580765e-01,-2.320185795869828738e+01,-4.843787437940486384e+00,3.668129554557159722e+00,5.500000000000000000e+00,4.690939140013944630e+00
3.110201659258498563e-01,-2.306568924903647044e+01,-3.390505551305148302e+00,2.122489098206859381e+00,-1.978947978759008741e+00,4.380635108594459481e+00
1.000000000000000000e+00,-2.511279684502575904e+01,-5.894262261830006899e+00,2.720721247955988797e+00,-1.888732617203741082e-01,4.473528870299179339e+00
1.000000000000000000e+00,-2.497246699731263675e+01,-6.349084965744675735e+00,5.047443345830949113e+00,1.463373445844954546e+00,4.606471108331958497e+00
5.937052077010052109e-01,-2.057196735219397965e+01,-4.906310678900862143e+00,9.865953427211663351e-01,7.519311327494094810e-01,4.316134274179876051e+00
1.000000000000000000e+00,-2.377237873659861478e+01,-5.518389972520738596e+00,1.674588683236472475e+00,3.682130586064479849e-01,4.441714229015432558e+00
6.487643907524570652e-01,-2.600000000000000000e+01,-6.549729446846357384e+00,6.397091891197803193e+00,4.095551446000738061e+00,4.944173601958321562e+00
1.000000000000000000e+00,-2.371922244015902947e+01,-5.710758667864850757e+00,2.417231784653018245e+00,1.687850698851896425e+00,4.408377959755065412e+00
8.221233803778886795e-01,-2.208310522884130478e+01,-3.078743718564510345e+00,6.160460337996482849e+00,-1.510021783411502838e+00,4.312127196585872291e+00
7.153668550723032427e-01,-2.395290944559566881e+01,-4.753246652927990645e+00,-7.068126587415745066e-01,-1.985637442487021342e+00,4.393536566635042995e+00
8.228372199571603041e-01,-1.805632117041044893e+01,-3.182276658191736107e+00,-1.000000000000000000e+00,-1.268799330247245116e+00,3.860759397915994651e+00
5.352911697700619698e-01,-2.560817997902631760e+01,-5.427782848477363586e+00,2.112227581441402435e+00,2.525580130517482758e+00,4.822912459617593406e+00
7.663754795668800135e-01,-2.528710048731338489e+01,-4.117043223817640651e+00,2.709775394888822575e+00,4.178548814542452305e+00,4.625190760841849880e+00
0.000000000000000000e+00,-2.191387780267202956e+01,-4.429657819751937176e+00,-4.859228454037117784e-02,1.580632341640514360e+00,4.442434403688932498e+00
8.302473577623249446e-01,-2.380620433684331516e+01,-4.100159439102477599e+00,4.774087289343581730e+00,5.500000000000000000e+00,4.578869918256529559e+00
9.167440311155946597e-01,-2.600000000000000000e+01,-5.813864006865227196e+00,1.615093185342139304e+00,1.164410536549993269e+00,4.873379424685893468e+00
1.000000000000000000e+00,-2.340671618829917833e+01,-4.149245250865610579e+00,6.258082943129949172e+00,2.572461266978741889e+00,4.510015056050978188e+00
9.077956255037028521e-01,-2.554502938633712006e+01,-2.593442366567618063e+00,5.236987601239685652e+00,1.192009927267358549e+00,4.556740368507190553e+00
6.691419923832984118e-01,-1.909403499457291531e+01,-2.473209692536487037e+00,-1.000000000000000000e+00,1.159326277848425235e+00,3.944972744491657579e+00
9.437334751710295677e-01,-1.997733782976865768e+01,-1.446380786597728729e+00,4.127853773534297943e+00,5.358074270188808441e+00,4.267184016650655387e+00
1.000000000000000000e+00,-1.903371322903837282e+01,-1.921997207938142216e+00,2.119948800134193068e+00,-2.293826829412242696e-01,3.864998077911415919e+00
4.009442886539195672e-01,-2.021968486896030726e+01,-4.200541667135436086e+00,1.643642313227343443e+00,-2.816729195500571881e-01,4.239639583271500811e+00
0.000000000000000000e+00,-2.586638833484134636e+01,-5.371644387620412076e+00,7.000000000000000000e+00,5.500000000000000000e+00,5.011522379024584417e+00
1.516174896994822996e-01,-2.321399947381129536e+01,-4.890856957876816402e+00,1.928371409704385808e+00,1.281293514451121995e-01,4.625731686505997864e+00
9.070968179666474285e-01,-2.600000000000000000e+01,-6.123702398235735700e+00,2.996859871308309220e+00,2.484176094535439194e+00,4.782306902020461159e+00
1.000000000000000000e+00,-2.286757758377411776e+01,-1.000000000000000000e+00,2.071027007364451222e+00,1.350365344166121861e+00,4.089436247197039798e+00
5.376166899539629451e-01,-1.809209060556090876e+01,-1.022514767285658266e+00,1.932168502784884501e+00,4.553678641836947927e-01,3.933647127514546593e+00
6.054897168651223183e-01,-1.893095274269580841e+01,-3.135124690830707550e+00,2.850645437836647034e+00,1.871372029185295105e+00,4.538048931753375648e+00
8.244357053403424951e-01,-2.600000000000000000e+01,-5.823955879636558919e+00,7.898360436878283375e-01,-2.155722723167035615e-01,4.867407300137474024e+00
7.131680368727959518e-01,-2.261536590174304706e+01,-4.810558795894723794e+00,5.360373213273563753e-01,-2.500000000000000000e+00,4.333677823054614464e+00
8.471352739965621881e-01,-1.964118642905213719e+01,-4.468453485867964758e+00,9.210466135976941304e-01,-1.009007860994514560e+00,4.559843798649566793e+00
2.747661093363367724e-01,-2.270044177094290561e+01,-4.661626399391876951e+00,7.656684748970067345e-01,4.663724515829244410e+00,4.563521061606000018e+00
0.000000000000000000e+00,-2.508165518276745587e+01,-1.091456900567109756e+00,3.807430355803997468e+00,3.000668550551461422e+00,4.398504779873269932e+00
5.641226984398050037e-01,-2.506452223529310785e+01,-4.779803126851871475e+00,7.000000000000000000e+00,5.500000000000000000e+00,4.825858574704344761e+00
0.000000000000000000e+00,-2.382975712141729474e+01,-5.496170858573530715e+00,7.000000000000000000e+00,5.500000000000000000e+00,4.889118394090334441e+00
7.312706918529979783e-01,-2.362791707160373633e+01,-4.986435798653034546e+00,1.122249888919357730e-01,-1.009174600056861992e+00,4.611207639996214525e+00
4.069655977639407424e-02,-2.399050443828095780e+01,-3.731545795151776534e+00,5.807742358753376521e+00,3.439148391236261371e-01,4.701099439647506983e+00
9.397694123908877373e-01,-2.566486415266990662e+01,-1.055184677243232727e+00,4.205308683216571808e+00,5.480775393545627594e+00,4.545747393166759132e+00
7.369183160129242349e-01,-1.899511177324906797e+01,-1.042222845090739591e+00,4.994414860564237557e+00,-2.129153681439709178e+00,4.009411339907953398e+00
1.113146151052945287e-01,-2.268267962627493972e+01,-1.937803571403667879e+00,5.739333044721791843e+00,5.255458900853409610e+00,4.596746197288529068e+00
1.000000000000000000e+00,-2.281355141686566057e+01,-4.734480107733032739e+00,6.708430436391337182e-01,-1.531749202890722916e+00,4.101772382104917014e+00
3.932814183269601506e-03,-2.533706132910131714e+01,-3.723988221561585377e+00,7.000000000000000000e+00,5.500000000000000000e+00,4.846408711588889417e+00
4.856478287767269086e-01,-2.390176890221175654e+01,-3.256689654830987823e+00,7.000000000000000000e+00,5.500000000000000000e+00,4.668895429098105510e+00
9.111342895169183276e-01,-1.800000000000000000e+01,-1.310383406694269004e+00,-1.836963795070693517e-01,3.725384034667512889e+00,3.808796729726064090e+00
9.756894569863376887e-01,-2.600000000000000000e+01,-4.359712375128225403e+00,6.890936011386457061e+00,5.043417546550482022e+00,4.703862187804661588e+00
0.000000000000000000e+00,-2.478441532306097272e+01,-5.231414371082648174e+00,4.308236437185198220e+00,5.500000000000000000e+00,4.881477746355205483e+00
8.862571753561496735e-01,-2.147181956470012665e+01,-3.185311019420623779e+00,5.984590105712413788e+00,1.720794528722763062e+00,6.021337979829051612e+00
5.259725302457809448e-01,-2.397046135365962982e+01,-1.277084879577159882e+00,6.639511354267597198e+00,-1.246258571743965149e+00,4.952508767491319297e+00
9.608957371507156342e-01,-2.580042014405246320e+01,-6.277674362592931878e+00,4.916353209463729890e+00,4.923583520064150676e+00,4.770187311639180194e+00
6.209742432479670171e-01,-1.800000000000000000e+01,-4.138973255850738830e+00,2.375432555030784432e+00,7.967597802327266443e-01,3.932620064888553646e+00
8.976772772148251534e-01,-2.344686125218868256e+01,-5.724908038973808289e+00,6.223919123411178589e+00,4.151538252830505371e+00,4.426749703830220817e+00
9.464362151920795441e-01,-2.402434946596622467e+01,-7.716056361794471741e+00,4.624584555625915527e+00,-1.226422689855098724e+00,4.232515027171113609e+00
1.579420305788516998e-01,-2.093071108311414719e+01,-2.733417518436908722e+00,-4.716761559247970581e-01,3.093773491680622101e+00,5.883647487854697822e+00
8.942048743701225266e-01,-2.600000000000000000e+01,-6.471488759377128197e+00,5.335502582219616485e+00,3.243069723722863618e+00,4.999044972778808216e+00
0.000000000000000000e+00,-2.575612686900892712e+01,-6.236930567289289407e+00,1.425868193365218695e-01,5.500000000000000000e+00,4.992806698064420345e+00
4.803689358535170317e-01,-2.294011868712400215e+01,-4.906154444314666740e+00,1.772110806189389320e+00,-9.534187364737561898e-01,4.543883046653316882e+00
1.506108412990211920e-01,-2.205579640970477584e+01,-5.191749813592302587e+00,3.196390523434397224e+00,2.513402573678445329e+00,4.651025679443797856e+00
6.198020027492473494e-01,-2.500160941408752180e+01,-5.215008504837880032e+00,6.475489545949434378e-01,-4.402105131653721304e-01,4.609969357463293171e+00
6.458547847779828599e-01,-2.515778707554457938e+01,-6.680539724759340992e+00,5.685168107992788933e+00,5.291671785445966947e+00,4.936189403500361728e+00
7.649976682582333432e-01,-2.262399354289842890e+01,-1.107790631207002274e+00,5.553146181410586024e+00,4.330413752138522199e+00,4.453411728192028463e+00
8.413126463965868718e-01,-2.488366162642628865e+01,-5.192643880291337943e+00,2.601682249577972894e-01,-2.500000000000000000e+00,4.799906522099027129e+00
3.452894929796457291e-01,-1.841796097904443741e+01,-7.954028159379959106e+00,6.291446380317211151e+00,2.006495423614978790e+00,3.559375205433108924e+00
4.818515816028186016e-01,-2.450886330885890985e+01,-5.146376630081262782e+00,1.273337706636994415e+00,-1.319966392425648560e-01,4.696497175062993357e+00
9.459195437048066868e-01,-2.294482118374321544e+01,-6.404739602300390189e+00,5.636074626426650802e+00,5.500000000000000000e+00,4.862465773381528855e+00
1.129871364682912827e-01,-2.116184566915035248e+01,-1.863059476017951965e+00,3.164318487048149109e+00,1.963941767811775208e+00,4.723064412718751548e+00
5.171558726578950882e-01,-1.881674264371395111e+01,-1.573363818228244781e+00,3.589825682342052460e+00,3.370900079607963562e+00,6.417099398916700004e+00
6.133344257250428200e-01,-2.271011836826801300e+01,-8.697554856538772583e+00,2.670983359217643738e+00,3.804473288357257843e+00,3.295116600936391471e+00
3.989121094346046448e-01,-2.385872859507799149e+01,-1.395689323544502258e+00,5.410797238349914551e+00,5.452767483890056610e+00,4.793645733391978858e+00
1.000000000000000000e+00,-2.562425556267061211e+01,-6.383049271136668423e+00,4.454492512753470912e+00,3.954529987581210992e+00,4.475173335813926734e+00
1.553244061736409332e-01,-2.532077678215166472e+01,-5.828029197402635475e+00,2.740849499319216509e+00,1.864483766359288142e+00,5.389761284972456323e+00
0.000000000000000000e+00,-2.590116415568714459e+01,-4.480630201080386676e+00,7.000000000000000000e+00,1.098902360168445114e+00,4.941382360672639251e+00
1.732703469488715287e-01,-2.016664370357565872e+01,-3.623006730863656433e+00,8.875513322701357177e-01,-1.949030614014501728e+00,4.190085883338138473e+00
0.000000000000000000e+00,-2.600000000000000000e+01,-7.061144555343800810e+00,7.000000000000000000e+00,-2.405949909985284130e+00,5.156234976666765668e+00
5.974298257374780485e-01,-2.397875994286229329e+01,-3.427691531593923369e+00,6.842685169180438010e+00,3.726395874848834833e+00,4.864474251811906846e+00
1.432070345129315692e-01,-2.165439833364550992e+01,-4.935821633629823069e+00,1.909331578794761120e+00,-7.102937161023801238e-01,4.862865330374892103e+00
3.371248189359903336e-01,-2.170874290913343430e+01,-5.185625880956649780e+00,4.119499325752258301e+00,3.642297506332397461e+00,4.719595724141337989e+00
7.135547019969903926e-02,-1.846821120203514965e+01,-9.000000000000000000e+00,6.912151964320745634e+00,-9.232678998663910175e-01,5.034164942996125269e+00
3.042757390066981316e-01,-2.406409411132335663e+01,-1.977537676692008972e+00,4.438746944069862366e+00,4.208449542522430420e+00,4.640832581913211463e+00
6.928083935311798447e-01,-1.800000000000000000e+01,-3.506422839925927626e+00,-5.573041975068842024e-01,-2.384227141269808836e+00,3.944752041324270486e+00
7.127384297442292960e-01,-2.406827226534718278e+01,-2.475623682647877022e+00,6.540389558096424416e+00,1.112503171346991504e+00,4.589066752426474771e+00
8.543822262227664457e-03,-2.533308186034635767e+01,-3.312560012903939644e+00,2.793213056624784141e+00,5.500000000000000000e+00,4.744354763706963851e+00
7.652940078131373891e-01,-2.395173283943430675e+01,-5.944501343679108984e+00,3.214967874274957893e+00,-9.241305118609821623e-01,4.419211361215459988e+00
5.157916316681600000e-01,-2.003952960365448632e+01,-1.176569041505058255e+00,-9.779925347186533280e-01,-1.173400524029833414e-01,3.709885773937673381e+00
0.000000000000000000e+00,-2.337923827771728824e+01,-5.041296245708554835e+00,2.577220155874926366e+00,5.500000000000000000e+00,4.738339585282448141e+00
7.278909053292311748e-01,-2.600000000000000000e+01,-5.465733679728142391e+00,2.002652408683478491e+00,-2.384068104611835714e+00,4.729783299540745389e+00
9.064388452097773552e-01,-2.385447800904512405e+01,-7.101194590330123901e+00,1.532810159027576447e+00,2.235498309135437012e+00,3.742479914223888038e+00
1.000000000000000000e+00,-2.294737035329153940e+01,-5.160160108778775623e+00,8.140667525746917432e-01,-1.892492671386006298e-01,4.329300517549613758e+00
1.364248944306711564e-01,-2.235190225513187912e+01,-4.869076073036626262e+00,3.563783846036558955e+00,-3.111849776818888524e-01,4.614074759538642212e+00
1.000000000000000000e+00,-2.600000000000000000e+01,-5.837350450095901699e+00,1.582485816183774485e+00,-1.114495524443193109e+00,4.764798850418295650e+00
6.150898138841455198e-01,-2.576545982070306096e+01,-6.097595858190534734e+00,4.003721025231177677e+00,3.536357801632429521e+00,5.279714395541301286e+00
1.848168964156389482e-01,-2.600000000000000000e+01,-2.726705648757725697e+00,5.699954211020238581e+00,3.139787384981985507e+00,4.816800844182712815e+00
7.190046150835103234e-01,-2.502455104313268563e+01,-6.346883241156771938e+00,6.599233494524052723e+00,3.575050810084422714e+00,4.796153214654888863e+00
2.402283722805230171e-01,-1.800000000000000000e+01,-3.371194633274814390e+00,6.105265534045710707e-01,-2.462544082709736237e+00,4.075587206661437811e+00
8.617886017616310790e-02,-2.338826527278622436e+01,-5.673523465502142926e+00,5.868581129626411208e-01,5.500000000000000000e+00,4.764987859425759531e+00
6.252372708953839453e-01,-2.298931292797784209e+01,-4.371888740022237485e+00,-1.819317884059762636e-01,-1.074702569784465600e-01,3.992127058137390438e+00
8.546571154147386551e-01,-2.217554362118244171e+01,-1.688944205641746521e+00,4.028570331633090973e+00,3.426989123225212097e+00,2.656527658349015830e+00
1.000000000000000000e+00,-2.142201764353115934e+01,-4.886032377780524349e+00,1.618417624997728899e+00,2.922446468018151666e-01,4.216205431089353972e+00
5.796252735658592031e-02,-2.120574805026790344e+01,-6.620744977206395099e+00,2.654970660570436181e+00,4.969525672878439160e+00,4.764790348335036008e+00
0.000000000000000000e+00,-1.800000000000000000e+01,-2.224678880534443071e+00,3.919543962997449782e+00,4.754439930962315763e+00,4.185104129036096410e+00
9.022676939104680160e-01,-2.316984698042391955e+01,-5.683899662464745539e+00,1.292088207803744559e+00,3.225635654302602129e-01,4.394337586696438258e+00
5.738544833338198314e-01,-2.600000000000000000e+01,-4.709389432202980785e+00,-7.558640264874030845e-03,-2.403083793171335802e+00,4.808319447882376529e+00
1.847621650201419496e-01,-2.006023732624799649e+01,-8.594074892952432876e+00,2.763804198998729977e-01,4.398043276090624509e+00,4.909108391615429667e+00
6.215401580458704833e-01,-2.567117945268203272e+01,-5.321894925855609415e+00,-4.429487478369416031e-01,-1.920654987825202165e-01,4.691966776817426243e+00
3.252247958711490528e-01,-1.877256851376694513e+01,-7.946540185048990956e+00,4.887090237375830704e+00,3.815843360829427766e+00,4.654356957105068027e+00
7.988946677663867624e-02,-2.306488421392757715e+01,-2.276767202168811455e+00,6.418721639431678838e+00,-1.402701371662728125e+00,4.581170624895863241e+00
3.462196270044176072e-01,-2.517721698450699108e+01,-3.353602613514302000e+00,3.234827866624812920e+00,5.500000000000000000e+00,4.712919622238186612e+00
8.861378148134179122e-01,-2.600000000000000000e+01,-6.515914761380981801e+00,5.997324467887668042e+00,-6.754311381568472994e-01,4.875336544241386960e+00
1.000000000000000000e+00,-1.910954927012316418e+01,-4.521929810716001974e+00,2.444464288361070103e+00,1.490165783106645270e+00,4.036429878533964732e+00
3.077912232952791441e-02,-2.047024106625309514e+01,-4.471887294401888369e+00,-5.905614196050464892e-01,4.546253785591073404e-01,4.340377410138913206e+00
3.619774450000058930e-01,-2.415879491873288387e+01,-4.756758343285912183e+00,8.777655149564055348e-01,-1.316091177025051628e+00,4.638104888325911723e+00
9.959379075424252825e-01,-2.084594205823573532e+01,-5.793478783376103891e+00,4.694113411932507418e+00,3.456185033382598526e+00,3.930255540425537042e+00
1.000000000000000000e+00,-1.899001472385000966e+01,-4.650027277407383863e+00,-9.844400157514499039e-01,4.885645310777204209e+00,4.009313864884439305e+00
1.314255730300411401e-02,-2.548387927911769779e+01,-2.908334982198724994e+00,5.193512781643939036e+00,5.458840872319099091e+00,4.822954519372625093e+00
1.000000000000000000e+00,-2.311225154049397190e+01,-5.222152638177991690e+00,2.058145033988375339e+00,-2.206842312507562909e+00,4.340165579309850585e+00
8.017098637130944949e-01,-1.857155092385084316e+01,-5.428593096963876263e+00,6.025063455692746039e+00,-1.280797160751515840e+00,4.363178011633409348e+00
1.000000000000000000e+00,-2.392599719953101456e+01,-4.918281751483888797e+00,-1.000000000000000000e+00,-2.500000000000000000e+00,4.230697017986550179e+00
3.235917007550597191e-01,-1.928829131275415421e+01,-5.976435586810112000e+00,6.854078873991966248e+00,-1.300282500684261322e+00,6.230250739848353980e+00
0.000000000000000000e+00,-2.461002503950379960e+01,-5.699337356358871176e+00,7.000000000000000000e+00,-4.913360753942832559e-01,4.940152302315072852e+00
0.000000000000000000e+00,-2.083976686809740997e+01,-4.049383300580703171e+00,-1.000000000000000000e+00,4.371248874146123065e+00,4.312420742646475347e+00
9.789443934968143912e-01,-2.581914906129302523e+01,-5.562774186324703329e+00,2.921196184096276127e+00,-2.315995568442907881e+00,5.120600315197338936e+00
5.558682652190327644e-01,-2.441880533844232559e+01,-1.245586872100830078e+00,3.571106679737567902e+00,1.555907405912876129e+00,5.291859993135669349e+00
9.060440324246883392e-01,-2.532955586165189743e+01,-2.411928221583366394e+00,5.798124477267265320e+00,-9.054579138755798340e-01,5.705863879418113349e+00
3.298385302452178786e-02,-1.889033188876550540e+01,-1.504049730657446293e+00,5.735856756637886633e+00,-1.099848257065524582e+00,4.155771772250584917e+00
4.010356964399290347e-01,-2.430064789369700051e+01,-4.986090736311126648e+00,2.081310768319394544e+00,-4.659486928160569419e-02,4.832274216827022961e+00
5.930813839659094810e-01,-1.814827077835798264e+01,-6.081299483776092529e+00,-8.559261709451675415e-01,6.895357742905616760e-01,5.359192182665803550e+00
1.472821086645126343e-02,-2.005627327412366867e+01,-7.862728171050548553e+00,2.472074568271636963e+00,4.490654103457927704e+00,6.063341756707170127e+00
9.789289681042386837e-01,-2.005461741463101077e+01,-5.046322806031071195e+00,3.211207782413747491e+00,2.305068165383568068e+00,3.648917995449081797e+00
4.181865369901061058e-01,-2.269469941407442093e+01,-8.040683254599571228e+00,4.793511569499969482e+00,3.966223292052745819e+00,6.318041467463710426e+00
1.000000000000000000e+00,-1.800000000000000000e+01,-3.797316164337188660e+00,1.616211585360428193e+00,3.410229021168908137e+00,3.988664424274269482e+00
1.001325454562902451e-01,-1.962156801670789719e+01,-4.498480714857578278e+00,7.105699777603149414e-01,4.187761798501014709e+00,6.336845365708806632e+00
3.185395549956750449e-01,-2.019850676571476811e+01,-3.529117042831775741e+00,-1.379721218614674005e-01,-1.839861825205943546e+00,4.388687309487814936e+00
3.666516375264329830e-01,-1.800000000000000000e+01,-3.018928387773254673e+00,2.870985974750516756e-01,-1.857071449802837115e+00,3.904484741667253456e+00
3.396372347546145476e-01,-2.106147848790598331e+01,-4.977998161347046313e+00,-1.000000000000000000e+00,2.131724850376937930e+00,4.375361931045203434e+00
5.394293274730443954e-01,-2.190521564334630966e+01,-2.412522487342357635e+00,3.481203518807888031e+00,-2.412748999893665314e+00,4.440759119933583854e+00
4.015954304486513138e-02,-1.932998744398355484e+01,-8.769791714847087860e+00,3.718447186052799225e+00,2.889090999960899353e+00,4.361389981007316230e+00
8.693068964150952871e-01,-2.425256881664124009e+01,-4.903594619275460254e+00,-1.504031062434093569e-01,-2.819732346245732435e-01,4.023258075609931872e+00
0.000000000000000000e+00,-2.197379863316352910e+01,-3.207229222616895914e+00,3.058622965423498652e+00,-3.203284125459063825e-01,4.378814323559285349e+00
6.051303555120459698e-01,-2.365145341640906196e+01,-3.303544666373056771e+00,7.633639637101203856e-01,5.500000000000000000e+00,4.477138321663920451e+00
1.000000000000000000e+00,-2.410571799149737515e+01,-5.996537164313894941e+00,3.409144054013363956e+00,2.693197620586921914e+00,4.405927823801080834e+00
8.935875703275115711e-01,-2.500528134216103027e+01,-5.377034754321164733e+00,4.520080749277208820e-01,1.403180361439497759e+00,5.202564471052046002e+00
2.472219875570498271e-01,-2.600000000000000000e+01,-5.899658085277875941e+00,7.000000000000000000e+00,-4.428062886319639180e-01,5.028454065821557961e+00
9.741024348970409585e-01,-2.409920155698513611e+01,-7.023534592675488852e+00,5.728234395738005524e+00,4.591692379478573116e+00,4.391150811219676875e+00
6.048126514350803118e-02,-2.438120560984463836e+01,-8.577689910346029123e+00,7.329377349552228527e-01,-2.104466632930272141e+00,5.261878966381819289e+00
8.861311154733769735e-02,-2.402153580727796012e+01,-4.391994169733579589e+00,1.311500691368753468e+00,-1.800644035065011250e+00,4.617167830465771061e+00
5.765656875416498295e-01,-2.100955090579081030e+01,-4.462470640723037008e+00,-1.033096984341567645e-02,4.093762881146181698e+00,4.341695771331085751e+00
4.192073525299153114e-01,-1.840053121866515795e+01,-3.166445819727076838e+00,3.973201109655820629e-01,-2.230253560063948814e+00,4.095492077310511903e+00
1.213254816830158234e-01,-2.481701911985874176e+01,-2.715722642838954926e+00,5.843694873154163361e+00,2.804122887551784515e+00,4.787434102391936896e+00
4.170868153654246901e-01,-2.314399057522225434e+01,-3.964330921922686102e+00,-3.623505032708905227e-01,-2.490750846377394634e+00,4.948155032981802037e+00
9.521126355547572251e-01,-2.513244506263957589e+01,-5.846849549250952904e+00,-3.399159658956279473e-01,-7.859335931565106792e-01,4.466379781742483956e+00
6.313194559730576083e-01,-2.319293104397351968e+01,-1.065374104887384599e+00,6.518521109658999890e+00,-7.496356751902343296e-01,4.566802012103208241e+00
4.811165537685155869e-01,-2.392961627244949341e+01,-3.332405321300029755e+00,3.184560790657997131e+00,5.251960270106792450e+00,5.245283303206899284e+00
9.093084288761019707e-01,-2.275146231800317764e+01,-8.736069694161415100e+00,1.544294521212577820e+00,-1.703480266034603119e+00,3.181729250943400977e+00
6.669819114311320574e-01,-2.581248146255836318e+01,-6.101523640105080304e+00,4.451178558456273748e+00,9.346890417634559078e-01,4.781037529593841207e+00
0.000000000000000000e+00,-2.386637989193623710e+01,-5.192334431676121298e+00,4.928618325278672607e+00,-1.934722044129727037e+00,4.818852500627315294e+00
3.525408187084443368e-01,-2.099443913496874003e+01,-1.180877862017700730e+00,3.654277590954401411e+00,-1.115022664172433953e-01,4.205840140100813862e+00
5.457947133108973503e-01,-2.474242182075977325e+01,-4.683470018208026886e+00,1.587565638124942780e+00,7.189227417111396790e-01,4.300846052711942313e+00
0.000000000000000000e+00,-2.339892216016930249e+01,-4.394668509185984284e+00,3.769321659389328616e+00,5.500000000000000000e+00,4.695044539335938794e+00
8.616950762576983669e-01,-2.293236240850474061e+01,-5.377178098478791135e+00,-7.035247445610534056e-01,-1.111423940903357999e-01,4.312931632061258291e+00
8.693885806374159753e-01,-2.523898700613304058e+01,-3.062392649237787534e+00,5.705514514534557158e+00,-2.523593951134970315e-01,4.747063183139904829e+00
0.000000000000000000e+00,-2.018655532078378556e+01,-2.535065606793830195e+00,-6.423088985680205365e-01,-2.500000000000000000e+00,3.973770511273255757e+00
3.213869008054346943e-01,-2.072541007526837475e+01,-1.515799792423800474e+00,2.081225701523698568e+00,-1.312815928681619448e+00,3.944054247537794655e+00
5.637366939336061478e-01,-2.539787907153367996e+01,-8.857344962656497955e+00,3.386228725314140320e+00,-4.912917464971542358e-01,3.861907889491059898e+00
8.153571411967277527e-01,-2.453526278585195541e+01,-5.877492703497409821e+00,4.154852330684661865e+00,8.591845408082008362e-01,4.181791068410613654e+00
7.224856536222913350e-01,-2.290953935517381979e+01,-6.078148730482381801e+00,6.763240773496964842e+00,2.379363589095353504e+00,4.804904703556163170e+00
7.203111308633997067e-01,-2.466642250437895001e+01,-5.790914780077759616e+00,3.058380597664192457e+00,1.835312414274477222e+00,4.704584621090916130e+00
8.913698166675858570e-01,-2.600000000000000000e+01,-6.926916367444309053e+00,4.806437674658628367e+00,4.095210883318768147e+00,5.005776524184017973e+00
8.609702847898006439e-01,-2.095479249209165573e+01,-2.304139688611030579e+00,3.304508119821548462e+00,3.022958904504776001e+00,6.432550804114081977e+00
6.990556120872497559e-01,-2.187427806854248047e+01,-3.739323139190673828e+00,6.010056972503662109e+00,1.696842193603515625e+00,3.875992791151740668e+00
1.173855643719434738e-01,-2.420221935212612152e+01,-1.048344209790229797e+00,-4.451359584927558899e-01,1.990737102925777435e+00,5.281284244155624030e+00
6.720708928450054576e-02,-2.166967947707027520e+01,-5.131966380537578587e+00,2.601876995517602875e+00,1.332858531430618498e+00,4.599140934930324498e+00
3.888171752914786339e-01,-1.861282192170619965e+01,-1.030915521085262299e+00,6.438024871051311493e+00,2.684462085366249084e+00,4.329983839189746497e+00
3.975984007120132446e-01,-2.004822980612516403e+01,-8.440181262791156769e+00,4.568240195512771606e-01,-1.951992332935333252e+00,2.815559783375003455e+00
4.814433464780449867e-01,-2.218171142041683197e+01,-1.861013866961002350e+00,2.381096944212913513e+00,2.854760214686393738e+00,6.345269334858396171e+00
7.902360287385125082e-01,-2.600000000000000000e+01,-6.528244591823542109e+00,6.416109766168383466e+00,5.500000000000000000e+00,4.956823672797812108e+00
7.175018507987260818e-01,-1.961490274220705032e+01,-8.860465921461582184e+00,7.224152684211730957e-01,4.046728312969207764e-01,5.404293717241027473e+00
3.323497641831636429e-01,-2.274023918062448502e+01,-8.959095247089862823e+00,5.064968131482601166e+00,-2.153095744550228119e+00,5.179190506583192466e+00
5.239433870751820654e-01,-2.113419205783859312e+01,-4.616981493086116828e+00,2.140206353077254597e+00,-4.016781035451901793e-01,4.349767820312631983e+00
4.842153079807758331e-01,-2.159792324155569077e+01,-7.438084453344345093e+00,4.686430625617504120e+00,1.037276647984981537e+00,4.519508374279477714e+00
9.365396201610565186e-01,-1.944918706268072128e+01,-4.833685092628002167e+00,1.744454994797706604e+00,7.170399054884910583e-01,4.195172281360366462e+00
3.809293427496043272e-01,-2.241699956383781611e+01,-4.787378031164647219e+00,1.294185599661534569e+00,1.226175889759619109e+00,4.202038305517478811e+00
8.043044423684477806e-01,-2.151296695321798325e+01,-4.762446545064449310e+00,-9.974963515996932983e-01,-3.065679594874382019e-01,4.223964394426086066e+00
0.000000000000000000e+00,-2.104468956498973853e+01,-4.116279738198799443e+00,1.854765528470377012e+00,3.599987034890103632e-01,4.256620977389786731e+00
8.146892536371000415e-02,-2.580263076486343010e+01,-2.867444651370555597e+00,3.398030862455576617e+00,1.438985835886387399e+00,4.769852725610429722e+00
0.000000000000000000e+00,-2.342750377394417782e+01,-5.111173290901879440e+00,6.515410215654928727e+00,2.716225132506193754e-02,4.826284639383433550e+00
4.876158675344287041e-01,-1.888779225093212588e+01,-1.065643257874628880e+00,3.289233989695560023e+00,3.949629339525734029e+00,3.979198724939562393e+00
8.500438601129920446e-01,-2.364201431420787003e+01,-5.772672045196522106e+00,3.703354428001928156e+00,3.207955694255559820e+00,4.993129869786121944e+00
6.485149495379253226e-01,-2.345879465506568451e+01,-4.930361279537570418e+00,6.324581733796185157e-01,-5.022704056769088377e-01,4.491947031361051224e+00
5.463564319638514188e-01,-2.562494248274099462e+01,-1.777095993343685620e+00,1.191763205010883814e-01,3.323652584537432286e+00,4.392763848117797743e+00
1.000000000000000000e+00,-2.150906797786678482e+01,-4.510697281923317981e+00,-7.772556152292329212e-01,-2.231061934584984918e+00,4.228239608773602498e+00
7.626365600153803825e-01,-2.291810967028141022e+01,-4.988374002277851105e+00,2.385753914713859558e-01,-7.070755437016487122e-01,4.180242960697152732e+00
0.000000000000000000e+00,-2.600000000000000000e+01,-5.611071186239181330e+00,5.508422192257691918e+00,-2.500000000000000000e+00,4.949991102824863098e+00
1.000000000000000000e+00,-2.096743385777860169e+01,-5.096967503020781720e+00,2.720577533710045959e+00,1.544801983382770638e+00,4.197720132873397958e+00
0.000000000000000000e+00,-2.558941530477263271e+01,-7.451453454033716284e+00,5.764132658379178764e+00,-1.894726975163855132e-01,5.057407576944203065e+00
1.000000000000000000e+00,-2.499911420362109737e+01,-5.837304212613951826e+00,1.487707521757007489e+00,2.436103863302840900e-01,4.387814314858063725e+00
5.081783541867918030e-01,-2.530549240619305351e+01,-5.177177990101690774e+00,-1.915186542973670580e-01,-1.958930671114478717e+00,4.631745380754460406e+00
2.369433451626819231e-01,-2.564754559185360705e+01,-2.475355659264419472e+00,4.099346167541782826e+00,5.500000000000000000e+00,4.719869576124565924e+00
6.345005645775463332e-01,-2.271073447883728846e+01,-5.010861715352510792e+00,1.700752912785797655e+00,-4.098365629566926016e-02,4.514327110153057987e+00
9.122336888685822487e-01,-2.189897592365741730e+01,-1.241432167589664459e+00,3.921828046441078186e+00,-2.102598287165164948e+00,2.899691039120891212e+00
1.000000000000000000e+00,-1.982131287973447087e+01,-3.617600976071359220e+00,-9.910212787128800382e-01,1.579502507497980268e+00,3.958244516060175133e+00
0.000000000000000000e+00,-2.226516277173233860e+01,-1.000000000000000000e+00,-1.000000000000000000e+00,-2.500000000000000000e+00,4.158324498214944320e+00
6.213586084272695320e-01,-2.184792921031632318e+01,-4.364785360737151620e+00,-1.255053524814309374e-01,-1.582655325484979114e+00,4.619824492685743245e+00
2.764954666229843538e-01,-1.921509361729523135e+01,-4.103554680717323322e+00,2.425593052991764864e+00,3.906694486812407191e-02,4.216615023364114201e+00
2.388121737167239189e-01,-2.498194442689418793e+01,-7.038829676806926727e+00,4.651327945291996002e+00,-1.676104292273521423e-01,2.817501080578305839e+00
1.000000000000000000e+00,-2.502347172254425800e+01,-6.294272149100047287e+00,4.514471718755497243e+00,2.751330811104311103e+00,4.822421737347244886e+00
2.375635396387169307e-01,-2.264728599943915199e+01,-2.427162907192026875e+00,4.085007923416306141e+00,-1.496841438093952759e+00,4.399153922194861011e+00
5.575498025864362717e-01,-1.987144812196493149e+01,-4.211505666375160217e+00,-4.208397865295410156e-02,2.183143220841884613e+00,3.569465623593070625e+00
8.477481214015167854e-01,-1.913639942941557237e+01,-6.192500764349876619e+00,1.514098095486597628e-01,3.292775925711613483e-01,4.118006728977269049e+00
3.805172426741979530e-01,-2.485592091071844223e+01,-4.962594301312435618e+00,7.771586399158483260e-01,6.184058207267324470e-01,5.011605218469099121e+00
3.262093259679380020e-01,-2.414905918842847754e+01,-1.696956049887948570e+00,2.023757531147004851e+00,4.175203307457172053e-01,4.503245136677333171e+00
7.984479999392010141e-01,-2.099957226795598686e+01,-5.066064818753106103e+00,2.848199242004061382e+00,5.392901808070390546e-01,4.294995342959107454e+00
2.287998739013007848e-02,-2.215527396295684071e+01,-5.305708776269229432e+00,2.171198299511869934e+00,3.637981818374410370e+00,4.668074972254374622e+00
0.000000000000000000e+00,-2.429516759036047446e+01,-4.160268405663547497e+00,5.099938695838283742e+00,4.212072081453812622e+00,4.885507416032899286e+00
2.200078279595605035e-01,-2.031806531071664779e+01,-1.029557002178460579e+00,-2.380077693758489987e-01,1.061373623903113961e+00,4.116994003221517318e+00
1.737166729398868237e-01,-2.326993345855187556e+01,-1.735854299888565100e+00,6.148277038662189220e+00,1.352819770873272320e+00,4.493894486420730416e+00
7.920104353945031095e-01,-2.456118493482145126e+01,-5.660210526353669280e+00,2.266424993581118930e+00,2.102932678503908193e+00,4.616286253660758732e+00
5.221309958240165638e-01,-2.556050578337245582e+01,-5.713635621877363846e+00,8.530641422558203624e-02,-3.677266166335468323e-01,4.799818312964394984e+00
4.254173296934095627e-01,-2.402842686062475863e+01,-4.605208196012078758e+00,-9.953827592129493862e-01,-1.750954441396725292e+00,4.358903430150864011e+00
6.442297343164682388e-02,-2.042452371865510941e+01,-5.985802359879016876e+00,4.794553071260452271e+00,3.322431743144989014e-01,5.259628688341119407e+00
1.483844462782144547e-01,-1.813820348680019379e+01,-1.783098436892032623e+00,4.740472093224525452e+00,2.325633920729160309e+00,6.014254701679685233e+00
1.167826698077781000e-01,-2.235485642194709044e+01,-4.929356655879956861e+00,3.445167556157875399e+00,1.694661315633263499e+00,4.638133298931252924e+00
2.951802987241602949e-01,-2.461740553866722792e+01,-2.122216300523949162e+00,-4.223206848164832161e-01,4.363416304739368812e+00,4.553669410719444421e+00
6.688930103555321693e-01,-1.824151427298784256e+01,-3.961878627538681030e+00,4.069203235208988190e+00,3.554446309804916382e+00,4.271317062324025748e+00
1.000000000000000000e+00,-2.020445969701360767e+01,-4.650225780304769962e+00,1.865553209242454047e+00,-8.750419793503202981e-03,4.055153089123454180e+00
2.119489200413227081e-02,-2.465192107856273651e+01,-6.241523541510105133e+00,4.494625516235828400e+00,3.010599307715892792e+00,3.273021729087569831e+00
6.644438020884990692e-03,-1.840567117184400558e+01,-3.194889925420284271e+00,5.405785098671913147e+00,3.100466564297676086e+00,5.576278125291803001e+00
2.658683257177472115e-01,-2.164085186272859573e+01,-1.749237291514873505e+00,5.382729880511760712e+00,1.257115311920642853e+00,3.841502302682139991e+00
0.000000000000000000e+00,-2.600000000000000000e+01,-4.957530919286303295e+00,1.614926815542630623e+00,3.060011001246263351e-01,5.388909938827578294e+00
2.635634781651353675e-01,-2.504662798522571165e+01,-4.261104049482971057e+00,6.954295495425762974e-01,5.380156598940107671e+00,4.694382003697252337e+00
8.240235317774786683e-01,-2.491139623417717885e+01,-6.257137926710829134e+00,6.302965880436282475e+00,5.464316640538798175e+00,5.084156624238825195e+00
2.704769298434257507e-01,-2.276559321582317352e+01,-3.246993310749530792e+00,1.435489155352115631e+00,-2.388507679104804993e+00,5.668291804736592887e+00
6.222311453893780708e-01,-1.866429191827774048e+01,-6.321729719638824463e+00,-8.567313998937606812e-01,5.024135932326316833e+00,4.967279718613364814e+00
1.816113663876861850e-01,-2.538318717154097115e+01,-4.752768644786217855e+00,9.447798987422306727e-01,-1.088628425449076564e+00,4.807153533129279843e+00
1.757615646347403526e-01,-2.553346490114927292e+01,-5.254448056221008301e+00,-4.245493933558464050e-01,-2.315385565161705017e-01,4.618384578621127723e+00
7.886107238009572029e-01,-2.150160174816846848e+01,-1.943081304430961609e+00,5.884756594896316528e+00,-2.091533668339252472e+00,3.418865603750684379e+00
1.153282709419727325e-01,-2.006073187291622162e+01,-3.874143071472644806e+00,8.618939593434333801e-01,-1.134705230593681335e+00,4.828406856751182197e+00
8.607675069943070412e-01,-2.304943130910396576e+01,-5.247046537697315216e+00,-8.344466388225555420e-01,-5.593579411506652832e-01,4.338865683769919990e+00
8.121519153937697411e-01,-1.960150719434022903e+01,-4.739750310778617859e+00,5.572948597371578217e+00,4.032571621239185333e+00,6.000953370129802344e+00
3.353791385889053345e-01,-2.357348948717117310e+01,-1.721998557448387146e+00,1.898386947810649872e+00,5.087696112692356110e+00,4.444972669130303977e+00
1.085375230759382248e-01,-2.051550298184156418e+01,-3.676327519118785858e+00,2.381269186735153198e-01,-9.159854426980018616e-01,4.300327969139554618e+00
7.926764907315373421e-01,-1.978002627938985825e+01,-5.331747598946094513e+00,5.714477442204952240e+00,3.228035010397434235e+00,4.463557773625590919e+00
6.647410802543163300e-03,-2.283877377212047577e+01,-1.891637027263641357e+00,4.319594077765941620e+00,-2.364198043942451477e+00,6.108034094220140098e+00
7.255128026008605957e-02,-2.483558253943920135e+01,-3.945019267499446869e+00,-8.618778735399246216e-01,4.016850382089614868e+00,4.315017541295030234e+00
4.819328277282101669e-01,-2.590160458324099224e+01,-4.708162348338444048e+00,-3.736190928116975285e-01,-1.004163502300951860e+00,4.803801266937942849e+00
1.583671234548091888e-01,-1.902688957750797272e+01,-3.389814436435699463e+00,2.311202213168144226e-01,-2.406422235071659088e+00,4.046573796665408729e+00
9.134251943482435410e-01,-2.394714539083144444e+01,-5.908505321663456655e+00,5.577162935070978378e+00,-1.196911102052107712e+00,5.019902168458824754e+00
7.223206777125597000e-01,-1.986747515201568604e+01,-4.095734447240829468e+00,9.915037080645561218e-01,-2.039560005068778992e+00,4.027250887250640510e+00
1.377419251948595047e-01,-2.010061606764793396e+01,-2.062715619802474976e+00,6.914701931178569794e+00,2.031606256961822510e+00,3.682167788392045615e+00
8.195733533970708251e-01,-2.490433297939501145e+01,-5.133130763655676887e+00,1.384963264080261713e-01,-1.421748101440376333e+00,4.467389197909473531e+00
0.000000000000000000e+00,-2.048163280165528732e+01,-5.213503839882579705e+00,6.113946486209215214e-02,1.864411278607714051e+00,4.487275574336064388e+00
0.000000000000000000e+00,-1.860893515741806326e+01,-1.000000000000000000e+00,-1.000000000000000000e+00,-5.728561356407986249e-01,3.925259138014471461e+00
4.690506868064403534e-02,-2.195959398150444031e+01,-1.386570945382118225e+00,3.241464495658874512e-03,2.917536117136478424e+00,4.801025023108461021e+00
4.391694832593202591e-01,-2.495431384444236755e+01,-4.292080044746398926e+00,1.257103852927684784e+00,3.666066594421863556e+00,5.975259238278606055e+00
1.980464371745183638e-01,-2.440856031475404109e+01,-7.295834750227992771e+00,-1.000000000000000000e+00,4.354669534374477458e+00,4.975580290145884987e+00
9.495498081800258783e-01,-2.485494350855357482e+01,-4.838193376191632034e+00,1.078632745195521742e-01,-1.198902065616844897e-01,4.145792348455977105e+00
9.757873396594839432e-01,-2.533667470391186072e+01,-5.251166244902537805e+00,1.064175191525863040e+00,-1.130246206500731709e+00,3.972249014757444741e+00
8.690664386376738548e-01,-2.288285527378320694e+01,-8.168536774814128876e+00,-1.764558404684066772e-01,2.691525973379611969e+00,4.296768022125699638e+00
8.221172206103801727e-01,-2.005345313251018524e+01,-8.422461271286010742e+00,4.330089814960956573e+00,1.092469766736030579e-01,4.573213451897838233e+00
8.142452267929911613e-01,-2.002410925179719925e+01,-4.020117983222007751e+00,1.788928769528865814e+00,-1.704646572470664978e-01,4.222413645481803535e+00
9.191947952570692637e-01,-2.475074107005107749e+01,-6.021092349090046092e+00,4.292176622550129217e+00,2.438855267616617084e+00,4.187215089390027067e+00
9.800534527748823166e-01,-1.842061043530702591e+01,-1.957076564431190491e+00,4.549067579209804535e+00,-9.056367501616477966e-01,6.172031914239862083e+00
3.161251926794648170e-01,-1.913105652481317520e+01,-4.501021780073642731e+00,2.960682213306427002e+00,1.211131185293197632e+00,4.195443724637963889e+00
7.297722697257995605e-01,-1.973745965957641602e+01,-5.555257797241210938e+00,2.728329658508300781e+00,2.484871864318847656e+00,5.131463901495673774e+00
9.761010007932782173e-01,-2.397716864198446274e+01,-7.100907839834690094e+00,1.558849453926086426e+00,8.729517981410026550e-01,6.185115912353732703e+00
6.401253925347537566e-01,-2.494402166280427480e+01,-5.508183649408161742e+00,1.748431520226515046e+00,-8.492340688042667729e-01,4.498542056234315467e+00
5.472531979903578758e-01,-1.937702531367540359e+01,-1.460806377232074738e+00,3.475484810769557953e+00,-1.306541733443737030e+00,4.040914868360498069e+00
5.721590563685100550e-01,-2.287746119527277955e+01,-5.858700306442885086e+00,4.752150418270717047e+00,3.911689126412356554e+00,4.723376587790037107e+00
6.610493312732126370e-01,-2.566135516086323065e+01,-6.529043485485117593e+00,4.495774032892805749e+00,3.487057831982203204e+00,4.883664888784877256e+00
5.722302586210562536e-01,-1.800000000000000000e+01,-3.731124962610314011e+00,1.122202559879659001e+00,-8.448515572170001153e-01,3.856507720059192845e+00
2.223379276692867279e-01,-2.321837973594665527e+01,-5.730774737894535065e+00,5.469702139496803284e+00,4.090633168816566467e+00,4.824782182818391441e+00
3.601685604080557823e-01,-2.488615285605192184e+01,-1.833501718938350677e+00,6.570033825933933258e+00,4.137907415628433228e+00,6.025638350641467689e+00
7.526443451642990112e-01,-2.253561526536941528e+01,-8.171372726559638977e+00,2.507979631423950195e+00,-2.319057308137416840e+00,5.679927849566676734e+00
1.670124866068363190e-01,-2.006807924807071686e+01,-6.853055380284786224e+00,6.829644687473773956e+00,1.996179692447185516e+00,3.593883050030210136e+00
6.141938767077735895e-01,-1.853895462605879985e+01,-4.345791371399720937e+00,1.388724562572533072e+00,-1.163901988016397215e+00,3.975832294233915043e+00
2.087506800889968872e-01,-2.020627671480178833e+01,-7.080095611512660980e+00,-3.838270753622055054e-01,1.937297619879245758e+00,5.456264873391130088e+00
4.108049486818521334e-01,-2.116122062124265568e+01,-4.107515945194857743e+00,-4.012706210832515663e-01,5.485661217138794399e+00,4.470041987899890934e+00
7.217647608956959671e-01,-2.351995172580748772e+01,-5.142440405819082017e+00,1.170858268188959883e+00,-1.131671961340985577e+00,5.006670457726659862e+00
1.000000000000000000e+00,-2.119312966623535033e+01,-6.422727643058495417e+00,7.000000000000000000e+00,-1.933486960086945095e+00,4.508170555386175948e+00
1.483197361892758248e-01,-1.901560990107759253e+01,-3.115035488483299364e+00,5.385423914739799756e-01,-1.071622623233677407e+00,4.225226669281483716e+00
3.846564727354495616e-01,-2.600000000000000000e+01,-5.529343539959326037e+00,1.338935108837941090e+00,5.495310378348494673e-01,4.993745694970804117e+00
1.798220361710534676e-01,-2.600000000000000000e+01,-5.232115915838725151e+00,2.083673367886788697e+00,-9.901558306744492333e-01,5.037276479349176661e+00
1.492256959900259972e-01,-2.050339881330728531e+01,-4.733822353184223175e+00,4.404499024152755737e+00,2.773885995149612427e+00,5.511809544062354682e+00
6.190305212512612343e-01,-1.890245495736598969e+01,-7.779043264687061310e+00,4.645474888384342194e+00,1.917018368840217590e+00,2.862757013535239814e+00
3.761116582900285721e-01,-2.471627435833215714e+01,-5.317484803497791290e+00,3.244891986250877380e+00,-2.282160520553588867e-02,4.846022759920098899e+00
9.275357592850923538e-01,-2.530805565416812897e+01,-3.948062315583229065e+00,3.458290085196495056e+00,1.492788791656494141e-01,4.816265595501401542e+00
8.846339788287878036e-01,-2.460957314074039459e+01,-2.722229510545730591e+00,4.590546585619449615e+00,2.313171550631523132e-01,5.137435407733657478e+00
3.861023328100497976e-01,-1.941637215395767413e+01,-3.189791840844761417e+00,-1.000000000000000000e+00,-2.500000000000000000e+00,3.929881901522530363e+00
3.514870852231979370e-01,-2.409285911917686462e+01,-2.243788033723831177e+00,7.056952267885208130e-01,8.815716207027435303e-01,5.178377320414521812e+00
7.748638588400728056e-01,-2.523214024562798130e+01,-2.326493431242171006e+00,5.565386187136454055e+00,3.135603587085573185e+00,4.724481932833441533e+00
0.000000000000000000e+00,-2.064531790157429825e+01,-4.110445688185722091e+00,1.028770617903041584e+00,-1.155045373925085883e+00,3.830899108612538573e+00
4.146090894937515259e-02,-1.828028684854507446e+01,-3.686969876289367676e+00,1.791159607470035553e+00,3.225809097290039062e+00,4.642289606278874992e+00
4.470012309029698372e-01,-2.402988804876804352e+01,-6.720881745219230652e+00,5.910309404134750366e-02,5.239635892212390900e+00,6.547009797191360114e+00
4.355461234226822853e-01,-2.043470332771539688e+01,-6.871969282627105713e+00,2.621971093118190765e+00,4.977080136537551880e+00,3.656271302497127174e+00
8.919168449938297272e-02,-2.127286875993013382e+01,-2.925141192972660065e+00,6.068604558706283569e+00,-3.253170028328895569e-01,5.193742809241750358e+00
9.431769568473100662e-01,-2.179131934791803360e+01,-2.400301106274127960e+00,3.615423008799552917e+00,5.483444012701511383e+00,4.309497797286250709e+00
2.588559653666104229e-02,-2.205409485214268273e+01,-5.024077613996727365e+00,2.674113274368815851e+00,1.663045764970909390e+00,4.619250103646222350e+00
2.573191585079911414e-01,-2.567244755609963036e+01,-5.827242290333732200e+00,2.206717832585624706e+00,1.857444164896735694e+00,4.915604810455441509e+00
9.110821522772312164e-01,-2.278222621977329254e+01,-6.796204283833503723e+00,6.655343271791934967e+00,2.310728833079338074e+00,4.789345705306270240e+00
1.000000000000000000e+00,-2.516229219715475551e+01,-5.801536454165152179e+00,3.382822949407167545e+00,2.885833106066010956e+00,4.440204298147905959e+00
5.699661914057034817e-01,-2.093668265399909956e+01,-4.957641069274004941e+00,2.980063765360873695e+00,-1.796668485105662239e+00,4.602257172490568315e+00
9.450757881252327408e-01,-2.485488701735079786e+01,-5.713725132381945571e+00,2.494668014244366461e+00,1.393331220738203147e+00,4.986189039547784141e+00
9.131031491732343186e-01,-2.019410727716573817e+01,-1.094010550829625616e+00,2.831978942221478501e+00,-7.842073433321842257e-01,4.114232022153655244e+00
7.873812885954976082e-01,-2.474406805634498596e+01,-6.339595310389995575e+00,4.536665119230747223e+00,3.806546330451965332e-01,4.664328151738383887e+00
5.597340252253293347e-01,-2.255457262799473739e+01,-5.354466389938131066e+00,1.756688857550197769e+00,3.307982234779959452e+00,4.574267791415459250e+00
1.544053135439753532e-01,-2.104446551948785782e+01,-2.792398519814014435e+00,1.902570195496082306e+00,1.989071145653724670e+00,6.006942634826638816e+00
6.819521449506282806e-01,-1.980028152465820312e+01,-8.957230150699615479e+00,1.156762428581714630e+00,1.446380980312824249e+00,5.594313268905618308e+00
4.129110626073254076e-01,-2.006649463650537157e+01,-5.115894502049952663e+00,-8.207474091205801958e-01,-2.500000000000000000e+00,4.189645196267170135e+00
9.431431163102388382e-01,-2.158914113789796829e+01,-4.675726652145385742e+00,6.476296707987785339e-01,8.369082659482955933e-01,4.100579244440534232e+00
8.042778992571485430e-01,-2.362508503732453491e+01,-4.663528774417046385e+00,-4.540760344295996509e-01,-2.901684421433112226e-01,5.010209163060854287e+00
7.116657382682382016e-01,-2.600000000000000000e+01,-6.531417866383125492e+00,5.320163607302237807e+00,4.055756705178255039e+00,5.219102733470507793e+00
8.798606600612401962e-02,-2.383009701967239380e+01,-7.242433398962020874e+00,3.523192182183265686e-01,2.584806531667709351e-01,3.451768090373017905e+00
8.850089862920782480e-01,-2.444677373087398564e+01,-6.003770858280601530e+00,6.731884680505258345e+00,4.769394379665402361e+00,4.268456604259904807e+00
6.494559589773416519e-01,-2.572367995232343674e+01,-1.143609754741191864e+00,3.679889172315597534e+00,5.271000012755393982e+00,4.706742533838489173e+00
3.645593961700797081e-01,-2.385630898177623749e+01,-8.464774213731288910e+00,5.616609558463096619e+00,2.877976335585117340e+00,3.545123850351312278e+00
9.200757600747438980e-01,-2.510480318618703066e+01,-5.445162846206587304e+00,1.482166687366014202e+00,1.333785419414463380e+00,4.701150596667662107e+00
7.817683931776081563e-01,-2.192969356519393997e+01,-4.221649256222285373e+00,1.016728290321462946e+00,-1.290269084203487182e+00,4.527406599642866958e+00
