3.557368427628578855e-01,-2.258876435758198653e+01,-3.688828974287433837e+00,-3.179135247103994644e-01,-7.008608625340784215e-01,4.121847257493381989e+00
5.804263660712875028e-01,-2.261213639070258807e+01,-4.195947662594020855e+00,3.963810250812951352e-01,5.051751334094394252e-01,4.381997997992980842e+00
6.469964715579423764e-01,-1.829502670057613045e+01,-4.654084625470915171e+00,4.859238183221824769e+00,4.794416021706882525e+00,4.898332760305505573e+00
7.581165994636963612e-01,-2.577444262320340229e+01,-6.559825183113384028e+00,2.041082593773005271e+00,3.046131772723803977e+00,5.192617150012428517e+00
5.864658258695805149e-01,-2.526460755956118831e+01,-6.316703581506661003e+00,1.056816298865806303e+00,3.130701011509624543e+00,4.418476813432647532e+00
5.516101130831196908e-01,-2.333722195532478594e+01,-6.109942559595970657e+00,3.796576397220786880e+00,8.053051161744315678e-01,5.201764681168643989e+00
6.993908915049084074e-01,-1.947391066690649808e+01,-3.051791667315025158e+00,5.780154605170144677e-01,-2.272081296733420075e+00,4.193207583595329524e+00
5.466076244508271120e-01,-2.292525393329271566e+01,-5.312197415161924674e+00,4.058694118886934987e+00,2.472578666888853860e-01,4.778053280726417107e+00
7.187971248538649327e-03,-2.163943672395544482e+01,-5.395062293621132099e+00,3.964932720248394382e+00,-5.038367603346225465e-01,4.635672994118909429e+00
5.541072513732612226e-01,-2.227485360729419028e+01,-5.956140594563817281e+00,3.605259772175379851e+00,5.187537802176241719e+00,4.853625235583230335e+00
9.366904757389853398e-01,-1.930830047792158766e+01,-4.128935820956366243e+00,1.336222570945384547e+00,-1.411951555379760137e-01,4.566274043714015463e+00
3.292944009263532035e-02,-2.336408993142157442e+01,-4.880475676896678827e+00,2.982533097225450014e+00,-1.041590776031658727e+00,4.609961013041326439e+00
6.251824984267263519e-01,-1.950919880036678578e+01,-3.063652991863590636e+00,7.006100596049806839e-01,-3.160920873255097518e-01,4.440184310179438043e+00
2.932624598466149202e-01,-2.143101069818439086e+01,-3.887750161892809864e+00,-3.986791464605463631e-01,-2.307643639021398130e+00,4.236149325599702919e+00
1.700974807013099221e-01,-2.499620681083231233e+01,-5.563322291425675026e+00,1.098127270256365584e+00,3.015526698956706220e+00,4.968142783874116120e+00
5.331671805963756894e-01,-2.144722967117934687e+01,-4.596569179261090099e+00,3.162220552773360893e+00,1.848231733487277317e+00,4.916426069097910911e+00
1.892208624036928466e-01,-1.881185082186519963e+01,-4.104380371753911128e+00,2.565500540699041210e+00,-8.983749358257018258e-01,4.313776623386434750e+00
7.422050988148641837e-01,-2.466656827308952060e+01,-5.781480333226727275e+00,1.518258697410145963e+00,4.168008548820673731e+00,4.929460319643296451e+00
2.380717154717735262e-01,-2.228891060071199348e+01,-6.102755300483772238e+00,6.225596377406254156e+00,1.926650316377487293e+00,4.756999344058892021e+00
8.676276466862182790e-01,-2.077995287024175397e+01,-5.017069032801435569e+00,1.585584856798043063e+00,-2.068238860739392670e+00,4.488201629596559883e+00
2.919387300761133730e-03,-2.174575630377215418e+01,-5.747047030406811530e+00,5.304698733330996951e+00,4.601594885897513976e+00,4.827120101825151721e+00
2.210805309972139199e-01,-2.489961404028608172e+01,-5.730148570298111643e+00,9.453131211062446582e-01,-6.239766008755909255e-01,4.390219087669049891e+00
2.622066140527219424e-01,-2.593565310899607468e+01,-5.243038915423500868e+00,2.701654314381697120e+00,-4.563840803140850610e-01,4.574236432688467247e+00
1.813419398782292191e-01,-2.145430687817575688e+01,-3.726314973935616948e+00,7.668005847694425725e-01,5.293484924040949835e-01,4.359347161171418961e+00
8.011619348171947763e-01,-2.335543729913269928e+01,-5.508333415151160040e+00,4.861247838413137679e+00,4.106156903170979255e+00,5.266216265814794184e+00
5.553791965359076155e-01,-2.290160040174946232e+01,-6.137751219546048631e+00,6.572534310767026433e+00,4.324160570595362962e+00,4.910204229499152362e+00
5.211436743308260899e-01,-2.563846129779653893e+01,-6.302714857797178993e+00,3.774173309560578282e+00,1.287322515683911206e+00,4.744247035195886752e+00
2.549217241801304823e-01,-2.086801027932180830e+01,-4.490289005931835220e+00,2.230569600298395017e+00,2.091448435975483910e+00,4.542526690277623125e+00
6.618468313499830113e-01,-2.137595850851104018e+01,-3.582920637562879485e+00,1.134391615987446755e-01,-1.124299582332401570e+00,4.525802216557851310e+00
5.025052450476971133e-01,-2.050758456853727907e+01,-4.477929483218595408e+00,1.298012832390925020e+00,1.379523512045255806e+00,4.314849600324178525e+00
3.752556850244993525e-01,-2.458690599352213013e+01,-6.664366047883612865e+00,6.250992334799316374e+00,2.616166992544593839e+00,5.005028266847952878e+00
4.461800588169305692e-01,-2.323242548207335645e+01,-3.186360365823702523e+00,-7.156057386906988782e-01,-9.389525198117691929e-01,4.396424334055481609e+00
7.951860498485991968e-01,-2.592963700524868287e+01,-6.341723060184760286e+00,4.661749301182000593e+00,1.623431500236231173e+00,4.820349197947611408e+00
4.875237486853722935e-01,-2.572124755678176911e+01,-5.973252817880363885e+00,3.339946767037039521e+00,3.835599595988345989e+00,5.428548639255039276e+00
8.768109188626715955e-02,-2.369128428404970776e+01,-5.202609148513555937e+00,4.794315728223894624e+00,1.650377324017341607e+00,4.743193196030194514e+00
8.561588025832276294e-01,-2.473043470249238851e+01,-6.309200878605652818e+00,4.512174084913354477e+00,7.188523104632889016e-01,5.239342549360127776e+00
9.379278655446363633e-01,-2.016388940547845365e+01,-4.981982512467639346e+00,4.864827475184496208e+00,3.779777028998608124e+00,4.338238765417707477e+00
5.236324673982005740e-01,-2.508826655621855650e+01,-4.563772806061106913e+00,-7.691275872497449484e-02,3.499265723617366319e-01,5.141179875862260218e+00
1.253893645045971450e-01,-2.530565471275808065e+01,-5.443322326871428807e+00,5.126992689495866173e-01,2.869437600929403587e+00,4.454286825253367610e+00
3.925309923194441053e-01,-2.370367643721390039e+01,-5.206771912187994289e+00,3.745373502369520047e+00,3.593808969979816581e+00,4.961709233731814273e+00
7.028262874563264706e-01,-2.239406011359604065e+01,-3.487114496022363674e+00,-1.447422529911666089e-01,-2.024719974399141975e+00,4.375685539531719570e+00
5.887521426804981362e-01,-2.416447374021306871e+01,-5.068857704481319892e+00,8.219826143604205271e-01,-2.006503682806877187e+00,4.568371352916569705e+00
5.949739557576410043e-01,-2.308134359465878660e+01,-5.743912899765446056e+00,5.192437257305994258e+00,3.605910279293649268e-01,4.672113557781745641e+00
4.372734812440088881e-01,-1.916018633950313443e+01,-4.810392010234615157e+00,5.697727828603094125e+00,3.522239684167247198e+00,4.936117513824155978e+00
1.031334232350979985e-01,-2.491284570203510285e+01,-5.095010321075595705e+00,9.320078125182718054e-02,-1.524290379131818973e+00,4.501295415804944966e+00
1.862436886920838530e-01,-2.455950659984803508e+01,-5.481762207124297959e+00,1.950880038408612016e+00,3.716468729355272060e+00,4.907958925027686270e+00
4.441359128159957370e-01,-1.883079729453035611e+01,-5.744182147261319038e+00,6.157029188607594072e+00,4.656168285047997735e+00,4.967446401671187672e+00
4.704819527162458215e-01,-2.546858257787355484e+01,-6.478103064066933037e+00,2.456654209004955014e+00,-3.634064694161187603e-01,5.167151699457086522e+00
4.980649147646789565e-01,-2.566341956808521729e+01,-6.211394198404458500e+00,2.476082008225355402e+00,4.312951689481279161e-01,4.656542196595315986e+00
1.023595520415967464e-01,-2.163626724132281609e+01,-4.826711464911897842e+00,4.231813325253908076e+00,-2.257934130111661553e+00,4.767248702646076808e+00
1.297409529278583662e-01,-2.356132986814179375e+01,-3.728634783261829178e+00,1.297500068284484165e+00,-7.715530440528279854e-01,4.523656462415012847e+00
6.033674934815860258e-01,-2.397819214963869427e+01,-6.520297065461901020e+00,6.708479380705862027e+00,3.678291069665919899e+00,4.947629408900525050e+00
7.966988253015924171e-01,-2.365904064604614376e+01,-6.391613755120145512e+00,6.253743333940582794e+00,9.782621409575051885e-01,4.884725291392614466e+00
4.584183483802602987e-01,-2.212212317613711576e+01,-4.112445839174354134e+00,1.062423523057476338e+00,4.402644253486753811e-01,4.572676662149609328e+00
2.906239706890052510e-01,-2.015133360498986903e+01,-3.036270986066575084e+00,-4.098751745646307398e-01,1.237355084401059457e-02,4.605928139825200773e+00
9.147003329015327422e-01,-2.408396028953214696e+01,-5.364435043841963235e+00,4.851417799021001898e+00,-9.992238971363480715e-01,4.665144416119209048e+00
9.747355423000904073e-01,-2.440185675816920252e+01,-5.557280256609626434e+00,4.242914246381641163e+00,7.108219799080952583e-01,4.426379304098476908e+00
9.581888615989192504e-01,-2.066722865124235398e+01,-4.905995338385171323e+00,2.659625711923530034e+00,7.163798522064217522e-01,4.427225726245712423e+00
5.292242290449861164e-01,-2.527384634529894214e+01,-6.347943740285977299e+00,2.482079151625304014e+00,1.002576723386758850e+00,4.687765288632018468e+00
5.587412371706436121e-01,-1.848393265789786710e+01,-3.630228483181300092e+00,3.249497251370900841e-01,-7.053690427714682798e-01,4.023418593318107916e+00
6.956153390432573413e-01,-2.580166851734331956e+01,-5.293526045489598708e+00,3.114241547059561022e+00,6.051287009107779724e-01,4.419697080854176008e+00
5.985313253843922432e-01,-2.295750458449263220e+01,-4.894308421784757890e+00,4.018912991992708683e+00,-1.965514462657795391e+00,4.703064902770643485e+00
3.549373240344600999e-01,-2.591906453413009359e+01,-6.250460780843693165e+00,4.441899035577077548e+00,4.746342410422225377e+00,4.928121657363296215e+00
6.134932573224560759e-02,-2.309441224510400303e+01,-4.979886645815505553e+00,3.340685635602744341e+00,-2.140438152631009672e+00,4.695114173682017444e+00
3.586479822054073896e-01,-2.531028469649456625e+01,-6.377410369489524555e+00,3.662557428810742088e+00,2.614377923220841282e+00,5.345058558849818731e+00
9.483892468530563669e-01,-1.949423344375581024e+01,-4.251003785701606752e+00,2.791149734655096637e+00,-1.797379228101024573e+00,3.860319318722276183e+00
4.063283462414872815e-01,-1.920191353352786834e+01,-5.717382498626577103e+00,5.587247842119327679e+00,4.952475408666649592e+00,4.873028327915820412e+00
4.619545132574239821e-01,-2.559015735301643701e+01,-5.911399366430686975e+00,3.435171783886548091e+00,-1.935864063750546649e+00,5.077557383671628344e+00
1.364034710661991001e-01,-2.440298474748158952e+01,-5.051587689842296669e+00,-7.704660649467829359e-01,-7.736511593333093018e-01,5.249573149714812814e+00
3.493832823235156759e-01,-2.591915132026834812e+01,-6.489400099396575250e+00,3.062496065911796350e+00,4.769989225984378578e+00,5.011066477205663006e+00
8.477109677411296396e-01,-2.143042995005073692e+01,-4.724084433052719412e+00,2.703809588593143687e+00,1.730537257904663839e+00,4.304286830439821188e+00
4.763636393213344089e-02,-2.228597216195803554e+01,-5.748436056838358788e+00,6.207882449108589107e+00,4.140160761802474276e+00,4.876087020395452498e+00
3.052196250352385842e-01,-2.507555697873705469e+01,-5.525961103435424349e+00,4.063208394053869910e+00,3.205479432353260272e+00,4.671141017515328286e+00
1.016772187292644958e-01,-2.469781359561998002e+01,-5.048463247211770977e+00,3.780836119071151025e+00,1.579915620106575602e-02,4.680102854388542788e+00
9.807072438478015020e-02,-2.411690425952613026e+01,-5.218835475993124362e+00,3.041992637058209326e+00,1.597755225601765972e+00,4.840291098161143779e+00
5.978478922342003177e-01,-2.570232903632361854e+01,-6.490022120486987234e+00,4.105811819851063582e+00,-4.215110251462039770e-02,4.668915015248286338e+00
1.315274634087426620e-01,-2.248221546505979873e+01,-5.061412445255903947e+00,4.524042073519197515e+00,4.546779004176143779e+00,4.734558267430641010e+00
9.583054629325561402e-01,-2.066031172573743291e+01,-5.138450457669034854e+00,3.974904942215110815e+00,4.577186723625779941e+00,4.141762058352789211e+00
7.408095506557282883e-01,-2.367596878385724679e+01,-4.650605168452282889e+00,-1.871510776728495529e-01,1.750745631114468459e+00,4.632591384394221024e+00
9.497401429594641842e-01,-1.892482126528030051e+01,-5.479795546587499011e+00,3.003996147137351969e+00,2.387041146615065834e+00,4.282571842080269420e+00
1.407286700788392686e-01,-2.267093049647704817e+01,-4.825604859869049079e+00,6.792319997244353758e-01,-8.189277573287867540e-01,4.878505722807156886e+00
1.907493163186967378e-01,-2.435190638385250850e+01,-5.651960954713509011e+00,2.925080720330874406e+00,4.095172774502374047e+00,4.805028565443989486e+00
3.973263874124286499e-01,-2.438472546942408670e+01,-4.668540094549264552e+00,2.637133571488619488e+00,-1.822876398900387329e+00,5.249275886188139673e+00
3.928225898391376480e-01,-2.408606220716032098e+01,-4.934425819045708650e+00,1.756503128650120260e+00,1.661655244295745071e+00,4.409178649868600530e+00
1.851561129415576490e-01,-2.272067617581812726e+01,-3.498377008684761869e+00,9.950254195258434464e-02,-1.594075335226149193e+00,4.755410435319881834e+00
1.706500801771615450e-02,-2.387220633381627266e+01,-4.696116704350647986e+00,-4.437414322730459659e-01,1.114862689097418702e+00,4.983881861491758158e+00
6.547978225315642664e-01,-2.000143523315662009e+01,-4.096081806643510959e+00,1.046647451489884695e+00,-2.447163134708476129e+00,4.292938200695187945e+00
9.973392540111374327e-01,-1.867541997390409847e+01,-4.583891203331392106e+00,6.940521944897959372e-01,2.328035642613929923e+00,4.540065845573532322e+00
3.151788518235092429e-01,-1.816753572137127293e+01,-4.070720721792910446e+00,1.363668128675718627e+00,4.679091414033855756e-01,4.611737672320575854e+00
5.709146194505422267e-01,-2.344498328735151560e+01,-4.211421764569784010e+00,-8.652343819615913034e-01,-1.978038157044936796e+00,4.522338937483087129e+00
6.673292867725033606e-01,-2.289605046440120972e+01,-5.078204411983801236e+00,1.363409003919497486e+00,6.196063473071022898e-01,4.538503042677001886e+00
9.495780990224326201e-01,-2.170695688401687917e+01,-6.007186087701923860e+00,3.978442847128235371e+00,5.003269709698026091e-01,4.855500122027925691e+00
8.466637630907092316e-01,-2.371202180162955386e+01,-5.611421965181786042e+00,2.324385751022824742e+00,-8.252006125144131232e-01,4.412814751532657453e+00
7.570165201546484868e-01,-2.127855999962785205e+01,-5.015032189688304776e+00,1.964860728599759909e+00,4.718565487238359779e-01,4.903745016098646659e+00
3.696598879839699814e-01,-2.138148560119988772e+01,-3.858518187822156165e+00,1.056820838899099613e+00,1.423570716422304372e-01,4.207125676413010495e+00
9.652041449538742990e-01,-2.045521692378048328e+01,-5.832731336507850806e+00,4.328337287028136693e+00,1.038774038363243335e+00,4.428727410528267683e+00
3.562760901003789726e-01,-2.135184653474004435e+01,-4.434776378418136211e+00,6.582217438210076210e-01,-1.535120363401264676e+00,4.618029776085235127e+00
8.386704662093282803e-01,-2.337274552515028958e+01,-4.814574402918045948e+00,1.070852895939290228e+00,-2.150787284074007211e+00,4.948557092475843966e+00
7.530149421262328779e-01,-2.484152974044499018e+01,-5.022938860928102933e+00,-5.076652778254180376e-01,1.280564563846321668e+00,4.909263606815622794e+00
8.838455946711095690e-01,-2.227138568617275638e+01,-5.984117623704727329e+00,2.379445111604943541e+00,3.351325902246538035e+00,4.324502526190100227e+00
